2160
50 2
-0.919419 -0.898834 0.053308 -0.668945 0.271647 -0.411236 -0.870414 -0.187927 -0.704464 0.359253 0.535095 0.209476 0.446931 -0.134409 -0.350574 0.494164 0.754295 -0.426819 -0.920113 -0.767722 0.115981 0.060223 -0.859983 0.184523 0.678600 0.401872 0.910919 -0.851167 -0.222725 -0.238832 -0.453522 -0.254270 -0.140198 0.565160 0.646455 -0.794002 -0.795837 -0.008358 0.557650 -0.278168 0.759888 0.069733 0.667389 0.083880 -0.565454 -0.832489 -0.859054 -0.667100 -0.948238 -0.662186 -0.929115 -0.863383 -0.818957 -0.924251 -0.834481 -0.923044 -0.979935 -0.966140 -0.925636 -0.699136 -0.959008 -0.957454 -0.970877 -0.864799 -0.709387 -0.550019 -0.657705 -0.841117 -0.637734 -0.880142 -0.815114 -0.875617 -0.785342 -0.935376 -0.749436 -0.955733 -0.816651 -0.996299 -0.907485 -0.703948 -0.531637 -0.619459 -0.326995 -0.697200 -0.754464 -0.428766 -0.043869 -0.165339 -0.229125 0.107757 -0.816999 -0.847736 -0.763516 -0.910534 -0.886330 -0.850806 -0.834565 -0.866070 -0.912055 -0.927256 -0.905724 -0.825967 -0.994775 -0.653093 -0.681637 -0.725329 -0.995870 -0.813597 -0.919464 -0.915128 -0.977784 -0.759268 -0.978937 -0.804845 -0.838097 -0.513416 -0.761407 -0.935193 -0.698764 -0.894523 -0.513674 -0.635002 -0.908913 -0.896010 -0.688381 -0.631787 0.483385 -0.770140 -0.600304 -0.164327 0.209317 0.176126 -0.244772 -0.319075 -0.007968 0.318721 -0.136184 -0.752658 -0.814146 0.163195 0.326276 0.703472 -0.947320 0.967346 0.151978 0.358476 0.759264 0.362207 0.640696 -0.972456 0.745493 -0.552325 0.441925 0.551788 0.789916 0.874828 0.070657 -0.369780 0.205757 0.462117 -0.311711 0.919128 0.616119 0.919800 -0.264449 -0.187727 -0.859528 -0.903049 0.787641 -0.724567 0.908422 0.163111 0.580719 0.730438 -0.023865 0.495203 -0.110382 -0.214968 -0.025848 0.391571 0.984436 -0.674916 0.136649 -0.132966 0.736460 0.129136 -0.422339 0.694443 0.086987 0.723999 0.508251 0.767217 0.092301 -0.920136 0.242276 0.551300 -0.952850 -0.369971 -0.558379 -0.412109 0.691576 -0.895102 0.343683 -0.080496 0.613802 0.697256 -0.725041 -0.464396 0.178189 0.629865 0.025289 0.284102 -0.047772 0.418069 0.790482 0.974432 -0.713928 -0.829987 0.529144 -0.855652 0.398621 0.898895 0.608185 0.728213 0.037375 -0.377351 0.676932 -0.237002 -0.020298 -0.440246 -0.628183 -0.070700 -0.861172 -0.066484 -0.842523 -0.528327 0.189081 -0.128808 -0.618219 0.281284 -0.506219 -0.007061 -0.415320 0.760369 -0.275837 0.025734 0.003949 0.775064 -0.738761 0.423839 0.350891 -0.368682 -0.949260 -0.080113 0.258039 -0.329620 0.902349 0.142491 -0.413237 -0.418487 -0.541735 -0.716716 0.847477 -0.848175 -0.607971 0.069214 -0.158629 -0.579494 -0.130615 0.838499 -0.977772 -0.441130 -0.530365 0.727584 -0.717469 0.308741 0.362872 0.822825 -0.107956 -0.028477 0.594398 -0.721501 -0.067727 0.449924 0.246445 0.126626 0.820227 -0.188264 -0.224389 -0.478040 -0.351668 -0.167103 -0.743658 -0.775508 -0.567492 -0.091039 -0.725432 0.208644 0.972579 -0.991599 -0.991471 0.177832 -0.075200 -0.309875 0.522304 -0.268541 0.154799 -0.028020 0.453582 -0.118911 -0.080797 -0.071986 -0.105951 0.956911 0.714767 -0.970413 -0.861141 -0.853004 -0.917236 -0.862864 -0.946166 -0.884796 -0.962134 -0.944796 -0.974901 -0.971178 -0.936478 -0.979322 -0.991285 -0.958236 -0.959234 -0.939317 -0.918839 -0.929755 -0.895126 -0.947685 -0.939490 -0.906301 -0.892312 -0.966065 -0.975404 -0.950469 -0.934310 -0.723096 -0.676358 -0.703591 -0.910507 -0.803174 -0.817141 -0.885873 -0.887130 -0.662278 -0.226613 -0.329792 -0.224509 -0.260615 -0.675102 -0.049191 -0.697179 -0.175922 -0.869894 -0.876090 -0.826466 -0.931012 -0.732646 -0.939790 -0.925536 -0.824033 -0.903307 -0.922506 -0.965240 -0.998259 -0.970190 -0.966891 -0.985556 -0.944546 -0.943563 -0.926365 -0.834051 -0.909544 -0.851901 -0.870569 -0.911123 -0.793919 -0.948442 -0.959537 -0.925737 -0.795275 -0.446511 -0.319405 -0.234729 -0.719571 -0.720686 -0.425447 -0.330509 -0.890742 -0.477528 -0.263195 0.228359 0.375524 0.012066 0.237502 -0.203214 0.240221 0.262477 -0.147936 -0.640734 0.459951 0.472421 -0.684406 0.641369 -0.115896 0.562744 -0.763872 -0.749848 0.391751 -0.746095 -0.413700 -0.788866 -0.654918 0.736836 0.904746 0.261933 0.162155 0.215208 -0.726403 -0.301248 -0.765928 0.098249 0.662637 -0.783989 -0.299303 0.701508 0.281000 -0.175094 0.734579 0.811794 0.003204 0.631268 -0.372206 0.715027 -0.251201 -0.046361 -0.043486 0.060203 0.017661 0.485748 -0.525116 0.680816 -0.095686 0.069398 -0.965731 -0.592671 0.129105 -0.079129 -0.041052 0.825980 -0.823460 0.125809 0.440763 -0.959926 -0.431390 -0.776212 -0.662554 0.162156 -0.210185 0.863713 0.902491 0.862823 0.568552 -0.466914 -0.448129 -0.905535 0.829416 -0.284336 0.552039 0.391024 -0.210550 0.476288 -0.462952 -0.530120 0.480632 0.888537 -0.378723 0.580213 0.204021 0.365622 -0.813970 0.135602 0.477493 -0.568374 0.481190 0.313450 -0.340061 -0.386004 -0.969593 -0.770021 0.369259 0.085711 0.311285 -0.153531 0.082565 0.595555 -0.944208 0.212589 -0.789896 0.767174 -0.078506 0.097180 -0.056401 0.307473 0.256937 -0.896868 -0.166978 0.057683 -0.775039 0.199307 -0.307838 0.791600 -0.362823 0.696073 0.715505 -0.147851 0.077244 0.056624 -0.313324 -0.811054 0.633847 0.467804 -0.735045 -0.692787 -0.561108 -0.786820 -0.426779 0.784514 -0.077351 0.119320 -0.767515 -0.616185 -0.886107 -0.887859 -0.617351 -0.432251 -0.107181 0.437147 0.520832 -0.345428 -0.558125 0.482619 0.811065 -0.408816 0.919521 -0.831194 -0.587128 0.276219 -0.819758 -0.661015 -0.862716 -0.619991 0.362520 -0.280422 0.535489 -0.713082 -0.037913 -0.800029 0.193532 0.180449 -0.633654 0.518896 0.900047 -0.407533 -0.178907 -0.364323 -0.386933 0.056064 0.517054 0.398021 -0.219026 0.972998 0.977263 0.674454 0.254478 -0.404858 0.130166 0.495663 -0.849359 -0.802095 -0.747544 -0.859136 -0.829223 -0.866033 -0.852047 -0.700314 -0.764564 -0.992393 -0.972130 -0.980560 -0.979344 -0.972095 -0.965243 -0.953127 -0.951470 -0.956193 -0.947831 -0.949665 -0.944001 -0.976795 -0.941302 -0.951996 -0.970617 -0.979118 -0.943345 -0.783771 -0.850619 -0.927276 -0.975919 -0.951066 -0.858243 -0.641698 -0.910060 -0.733319 -0.069202 -0.393648 0.016695 -0.715565 -0.887876 0.032342 -0.036415 -0.196636 -0.745268 -0.674696 -0.710790 -0.912339 -0.831992 -0.921281 -0.774892 -0.910751 -0.911942 -0.691176 -0.973354 -0.948098 -0.941734 -0.995864 -0.979500 -0.955617 -0.969217 -0.975722 -0.948791 -0.821384 -0.898363 -0.852482 -0.844636 -0.859031 -0.965999 -0.876098 -0.839687 -0.881221 -0.792846 -0.438963 -0.881235 -0.693683 -0.773533 -0.531776 -0.440397 -0.702953 -0.433288 -0.568904 0.395564 0.393476 0.194337 -0.055141 -0.645004 0.104039 0.026726 -0.498589 -0.508101 -0.442143 0.552850 -0.121441 0.597506 0.987424 -0.671466 0.205633 -0.169811 0.109037 0.169977 -0.439790 -0.300837 -0.892182 0.980278 -0.241342 -0.008163 0.715286 0.364441 -0.330697 -0.432677 -0.431549 0.527986 0.940562 -0.681558 0.853028 0.129242 0.676578 0.586053 -0.657663 -0.969956 0.661202 -0.404872 -0.748778 0.764656 0.197080 0.385549 0.446079 -0.245857 -0.491534 0.341188 0.740265 -0.486897 -0.345157 0.009910 -0.255376 0.358611 -0.105101 -0.257645 -0.588289 0.253244 -0.453842 -0.939419 0.810446 -0.088175 0.839755 0.179588 -0.381761 -0.691840 0.382139 -0.290079 0.625109 -0.859998 -0.482576 -0.520095 -0.353239 -0.292580 0.594540 0.746150 0.040842 0.583780 0.293762 -0.935870 0.464600 0.085059 0.156154 0.355540 0.373993 -0.959315 -0.177350 -0.160715 -0.934557 -0.731737 0.527865 -0.750760 -0.656090 0.570611 0.206997 0.006287 -0.343183 -0.838440 0.709585 0.048004 -0.677830 -0.174408 -0.832123 0.038854 0.263285 -0.972995 -0.523480 -0.073195 -0.308518 -0.685191 0.361277 0.025546 0.647872 -0.845195 0.656589 0.523626 0.639156 -0.846006 -0.433439 -0.633685 -0.140562 -0.701120 0.793280 -0.524845 -0.603119 -0.390065 -0.728396 -0.970941 -0.593707 -0.057365 -0.872597 0.610208 0.048253 -0.910555 -0.104514 -0.306850 -0.884414 0.118395 -0.599012 -0.738791 0.603186 -0.273605 -0.305964 -0.117658 0.665981 -0.522351 0.026404 -0.895206 -0.829963 0.884595 -0.903721 -0.851768 0.046598 -0.420047 -0.460684 -0.768573 0.008580 -0.398185 -0.263655 -0.554881 -0.083742 0.344592 -0.615850 -0.634609 -0.440860 -0.345925 -0.341241 0.728712 0.305760 -0.872009 0.049377 0.695719 0.524062 -0.661092 0.816570 0.293735 0.369986 0.680267 0.990950 0.338738 -0.309470 -0.057657 0.191971 0.922594 -0.000968 0.341918 -0.770477 -0.901951 -0.993357 -0.996751 -0.947493 -0.919985 -0.831318 -0.875747 -0.820870 -0.960062 -0.932989 -0.954683 -0.969510 -0.996497 -0.971395 -0.938242 -0.994250 -0.998783 -0.962689 -0.925524 -0.944319 -0.961483 -0.956201 -0.943631 -0.978353 -0.932846 -0.927450 -0.935815 -0.924174 -0.784584 -0.761580 -0.727997 -0.821785 -0.888591 -0.907536 -0.709880 -0.837092 -0.810446 -0.486351 -0.482156 -0.251621 -0.320654 -0.372693 -0.672562 -0.329729 -0.778504 -0.998795 -0.892693 -0.879611 -0.816807 -0.852165 -0.745145 -0.885371 -0.744838 -0.679477 -0.996175 -0.931429 -0.947420 -0.974895 -0.968742 -0.953980 -0.983552 -0.939296 -0.989616 -0.858891 -0.811766 -0.922789 -0.853944 -0.975002 -0.869154 -0.931750 -0.853538 -0.922180 -0.724039 -0.687568 -0.911290 -0.694133 -0.802717 -0.647514 -0.301422 -0.356188 -0.744045 -0.115239 -0.710568 -0.854015 -0.743348 -0.049924 -0.356266 -0.456141 -0.803373 -0.398978 -0.982971 0.104932 0.148138 -0.427915 -0.611527 -0.571132 0.522736 0.295563 -0.379502 -0.951518 -0.988221 -0.916050 -0.251655 -0.469644 -0.468365 0.365968 0.174793 0.665595 -0.038168 -0.513657 0.332943 -0.166475 0.245555 -0.858368 0.892609 0.330223 -0.175043 0.208832 -0.680237 0.439178 0.045465 0.049072 -0.106773 0.033556 0.188638 0.594086 -0.746801 0.475888 -0.586583 0.522522 0.879397 -0.749847 -0.826355 0.079224 -0.045013 0.881852 -0.265571 -0.642930 -0.211778 -0.221442 -0.172727 -0.824577 -0.612382 0.194204 -0.797137 0.590470 -0.614986 0.139033 -0.958757 -0.226115 -0.247606 -0.060249 -0.662913 -0.981218 -0.663930 -0.816266 -0.320743 -0.547978 0.853085 -0.933615 -0.953697 -0.720630 0.836866 0.904114 -0.829885 -0.629542 -0.157121 -0.524174 0.487258 -0.670252 -0.799300 0.827301 0.026291 0.223973 -0.736602 -0.738230 0.332156 0.806728 0.796334 -0.335021 -0.526487 -0.418657 -0.321143 -0.892563 -0.052326 0.672493 0.295007 -0.338774 0.295862 -0.980291 -0.548619 -0.514704 -0.079454 -0.854587 0.741205 -0.710487 -0.607215 -0.517391 -0.558706 -0.182478 -0.978351 0.043788 0.033248 -0.477506 0.125426 -0.107846 0.275167 -0.815369 -0.431854 0.035668 -0.634197 0.136438 0.288626 0.630531 0.330257 0.143911 -0.665607 0.324099 0.200395 0.131141 -0.034308 -0.150837 -0.123632 0.784079 0.569736 -0.093950 0.837910 0.751683 -0.716944 0.417877 0.221275 0.602970 -0.450213 0.798830 -0.282984 -0.560025 0.706604 -0.318039 0.387739 0.702139 0.656198 -0.882240 -0.353018 -0.016737 0.152632 -0.390230 0.195293 -0.449497 -0.769287 0.754166 0.208553 0.172089 0.018292 -0.857413 0.728015 0.365685 0.635646 0.727692 -0.814243 0.988065 -0.664285 -0.530721 0.468957 -0.934969 -0.323573 -0.536181 -0.745478 -0.185120 0.308508 -0.878754 -0.739020 -0.769770 -0.781917 -0.946127 -0.851855 -0.863303 -0.753155 -0.968966 -0.981903 -0.967060 -0.968161 -0.963466 -0.997490 -0.994473 -0.980634 -0.991007 -0.988613 -0.956423 -0.947771 -0.955996 -0.993970 -0.941680 -0.985608 -0.939656 -0.962009 -0.942585 -0.977719 -0.814169 -0.864514 -0.916051 -0.918429 -0.968017 -0.918582 -0.736189 -0.901633 -0.779717 -0.394584 -0.621237 -0.729594 -0.891360 -0.398846 -0.187351 -0.673384 -0.767405 -0.414379 -0.753812 -0.833929 -0.823300 -0.984534 -0.860348 -0.905165 -0.760329 -0.908539 -0.853023 -0.959241 -0.957511 -0.976971 -0.997402 -0.982762 -0.961861 -0.995377 -0.953425 -0.952261 -0.874273 -0.827044 -0.862276 -0.912613 -0.902498 -0.816352 -0.951700 -0.846314 -0.832274 -0.374514 -0.709589 -0.917026 -0.817779 -0.751991 -0.752350 -0.879727 -0.795822 -0.633048 -0.038452 -0.005316 -0.804733 -0.472448 -0.923705 0.089709 -0.278259 -0.427214 -0.869524 0.529621 0.957330 0.447143 -0.025179 0.144470 0.322272 0.290189 0.965791 0.111004 -0.661827 -0.097486 0.109945 -0.170016 -0.907425 0.968412 -0.952058 -0.497377 -0.738158 0.060010 0.168448 -0.509372 0.042418 -0.769555 -0.518229 -0.672350 0.020355 0.456872 0.431409 -0.139612 0.333327 -0.723155 0.544187 -0.279243 -0.482513 0.057534 -0.732033 0.536865 0.719601 0.392209 -0.567272 -0.867613 -0.951447 0.290565 -0.957123 0.687714 0.391909 -0.228042 0.659709 -0.596013 -0.183617 -0.962430 0.510069 -0.467859 0.456521 0.496100 -0.749906 -0.668046 -0.436076 -0.714103 -0.127841 0.285652 0.557117 -0.337083 0.230226 -0.521932 -0.671387 -0.630705 -0.386159 -0.536855 0.014404 0.814243 0.706911 0.163208 -0.657675 0.851369 -0.467786 -0.514239 0.627778 -0.472868 -0.143230 -0.479840 -0.655523 -0.326596 0.230399 -0.113000 0.171511 -0.178381 -0.661194 0.215332 -0.174469 0.065150 0.590638 0.046004 -0.845096 -0.272645 0.226775 0.397393 0.102722 -0.667757 0.675543 0.682396 0.068970 -0.796981 -0.266817 -0.838804 -0.177251 -0.313188 -0.441379 0.433046 0.725867 0.776789 -0.935028 -0.192582 0.481261 -0.563302 -0.430412 0.728889 -0.324566 0.389467 -0.606909 -0.427830 0.154089 -0.041962 -0.445155 0.847601 0.449642 -0.470744 0.502729 -0.498429 -0.465469 -0.087599 -0.779480 -0.281008 0.391671 -0.016754 -0.090456 -0.327825 0.167464 -0.294677 -0.246643 0.357359 -0.098930 0.690521 0.429086 0.682005 -0.033934 0.881429 -0.901144 0.428592 -0.633725 -0.466235 -0.172119 -0.304877 -0.347129 -0.699746 0.687559 0.422351 -0.862447 -0.937994 -0.099802 0.233821 -0.828374 -0.897681 0.583702 -0.870211 0.741575 -0.553715 -0.026572 0.832771 0.417301 0.186242 0.039938 -0.618442 0.793823 0.468581 -0.490376 0.222242 -0.799574 -0.223968 -0.709073 -0.964055 -0.905184 -0.853146 -0.970723 -0.936169 -0.969518 -0.991543 -0.979542 -0.888150 -0.938524 -0.971147 -0.988713 -0.931966 -0.922664 -0.971197 -0.942545 -0.961074 -0.940776 -0.961831 -0.945740 -0.983301 -0.968131 -0.939780 -0.981395 -0.934395 -0.931316 -0.976723 -0.988902 -0.896189 -0.899324 -0.885376 -0.850507 -0.961919 -0.806483 -0.912789 -0.835434 -0.724249 -0.506195 -0.959832 -0.834751 -0.625032 -0.420254 -0.859127 -0.828832 -0.783526 -0.930133 -0.972743 -0.921411 -0.988134 -0.934848 -0.851330 -0.926857 -0.989098 -0.969267 -0.954908 -0.951987 -0.987518 -0.986544 -0.942553 -0.988461 -0.944848 -0.965834 -0.969129 -0.951719 -0.995289 -0.857620 -0.941160 -0.975991 -0.835541 -0.898904 -0.864654 -0.904451 -0.694372 -0.726663 -0.570162 -0.721834 -0.649672 -0.929504 -0.536697 -0.969232 -0.531447 -0.412953 -0.675944 -0.531489 -0.707035 -0.319248 -0.861691 -0.906953 -0.985943 -0.864206 -0.425906 -0.665440 -0.830002 -0.899038 -0.145447 -0.187822 0.983986 0.895032 0.612862 0.250362 -0.866596 -0.665005 -0.234530 0.467730 -0.467232 -0.339737 0.768420 -0.340787 -0.625234 -0.316159 0.837432 -0.451427 0.541995 -0.962283 -0.253235 -0.368346 -0.021811 -0.417938 -0.698094 -0.721481 0.565857 0.146351 0.707264 0.414973 0.958558 0.159768 -0.425599 0.605629 -0.567418 -0.741954 -0.587158 0.853575 -0.812484 0.262503 -0.246063 0.875038 0.723737 -0.608337 -0.489552 -0.012730 0.163959 -0.853925 -0.133502 0.182673 -0.224134 0.146488 0.002572 -0.855955 -0.176589 -0.367180 0.256293 0.382901 0.004096 0.347041 -0.449077 -0.307636 0.176831 -0.488465 0.878871 -0.417451 -0.412270 0.308109 -0.386448 0.519066 0.232747 0.532804 -0.803403 -0.263031 -0.787904 -0.604528 -0.967184 -0.393499 -0.841252 -0.953278 -0.242800 -0.772077 0.445860 0.806848 -0.577606 -0.747070 0.788245 -0.377380 -0.766930 -0.581708 -0.285883 -0.312736 0.386145 0.565413 -0.644294 -0.258654 -0.515167 0.083807 -0.988045 0.297038 -0.118441 0.037229 0.029066 0.385980 -0.339168 0.495600 0.259231 -0.288915 -0.023391 0.023810 -0.266348 0.558533 -0.821221 0.713734 -0.410106 0.356576 0.429485 -0.222141 0.976861 -0.731726 -0.516568 0.592569 0.323876 0.660394 0.321985 -0.710171 -0.328909 -0.257930 0.533081 0.018463 0.909568 0.715844 -0.678528 0.439013 -0.549697 0.439786 -0.630596 0.840093 -0.107056 0.460044 0.978027 -0.994636 0.483906 -0.807311 0.661919 -0.653534 0.234509 0.322509 0.751447 -0.448360 0.261860 0.610767 0.256086 -0.852688 -0.514127 -0.104505 0.056750 -0.668240 0.358984 -0.502731 -0.286865 0.622313 -0.695373 0.066801 -0.606690 -0.109240 -0.810541 -0.524882 -0.439366 0.091573 -0.214063 -0.182929 0.176896 -0.480776 -0.961481 0.681049 -0.883915 -0.760383 -0.808520 -0.905667 -0.725386 -0.812049 -0.900349 -0.991037 -0.980173 -0.741905 -0.842422 -0.976405 -0.904800 -0.711396 -0.741633 -0.767785 -0.912117 -0.988200 -0.978472 -0.837250 -0.528977 -0.723620 -0.693707 -0.877224 -0.815257 -0.780879 -0.939534 -0.651491 -0.939167 -0.887686 -0.644952 -0.708106 -0.690658 -0.811358 -0.938014 -0.767951 -0.837769 -0.844368 -0.494802 -0.351866 -0.877005 -0.867714 -0.925042 -0.918857 -0.533572 -0.691823 -0.928821 -0.625407 -0.845630 -0.903286 -0.858840 -0.935996 -0.820347 -0.897586 -0.874267 -0.823365 -0.854826 -0.944802 -0.597985 -0.835970 -0.956640 -0.935556 -0.924707 -0.773997 -0.690610 -0.766838 -0.704800 -0.890746 -0.791589 -0.960926 -0.839994 -0.914728 -0.695077 -0.617765 -0.588741 -0.702307 -0.641886 -0.630470 -0.736025 -0.865777 -0.741353 -0.533275 -0.453281 -0.589153 -0.381828 -0.652860 -0.709095 -0.848746 -0.644464 -0.479888 -0.038424 -0.084096 0.560115 -0.335807 0.592699 -0.699075 0.229167 0.200877 -0.202776 -0.657848 -0.115295 0.390178 -0.097499 0.174862 -0.689141 0.626341 -0.857589 0.529588 0.584073 -0.761423 -0.760100 0.223205 -0.606705 0.117405 0.653641 -0.148645 0.132685 -0.585562 -0.328654 0.326321 0.217588 0.924331 0.476256 0.505933 -0.268408 -0.785504 0.326854 0.367730 -0.649532 0.727631 0.473466 0.403667 0.714090 0.090979 0.805302 -0.648253 0.171633 -0.935906 -0.697814 -0.191841 -0.184741 0.697795 -0.321129 -0.671066 -0.966243 -0.973564 -0.254851 -0.161998 -0.898895 -0.349581 -0.940603 -0.815154 -0.430846 0.008439 -0.797146 0.353161 0.365377 0.960043 -0.577377 -0.954704 0.534454 -0.799348 -0.345461 -0.835719 -0.087921 0.321853 -0.895877 0.901055 -0.433574 -0.916572 0.088388 0.431476 -0.119552 0.871603 -0.542164 0.452972 -0.879893 0.437622 -0.425659 -0.572266 0.168207 -0.089107 0.734632 -0.775321 -0.513062 -0.729971 -0.694031 -0.460478 -0.174173 -0.095912 -0.874347 0.403613 -0.332194 -0.477166 -0.666815 -0.178611 0.393208 -0.727014 0.216035 -0.840858 -0.026707 0.154635 0.185608 -0.141968 -0.510007 -0.333817 -0.006411 -0.558398 0.971509 0.168695 0.469674 0.118474 0.070672 0.889597 0.931924 -0.146210 -0.353413 0.061467 -0.610434 -0.624332 -0.348485 0.183629 0.627874 0.475149 -0.017399 -0.392390 0.117044 0.946458 -0.758624 0.442752 -0.464814 -0.029785 -0.881279 -0.913724 -0.957136 -0.276093 0.381004 -0.039427 0.317224 -0.474144 -0.387031 -0.936703 0.012129 -0.160622 0.323849 0.568770 -0.176752 0.495415 -0.707403 -0.741441 0.288826 0.155748 -0.056891 -0.517259 -0.376530 0.877143 0.268386 -0.966765 0.221262 -0.564392 0.596003 0.211838 -0.389580 0.610950 0.572551 -0.417325 -0.024925 -0.524439 -0.731575 -0.068676 -0.611947 -0.501720 -0.948957 -0.727180 -0.767471 -0.853656 -0.894221 -0.815636 -0.718402 -0.697483 -0.740558 -0.994895 -0.526364 -0.736996 -0.508859 -0.728782 -0.662824 -0.791938 -0.692897 -0.879255 -0.917676 -0.856934 -0.402798 -0.563160 -0.615839 -0.405257 -0.373806 -0.490850 -0.186436 -0.701073 -0.419065 -0.187130 -0.972466 -0.554334 -0.920300 -0.763359 -0.944195 -0.822867 -0.472630 -0.297934 -0.680336 -0.923372 -0.569944 -0.637127 -0.978163 -0.995251 -0.994715 -0.485904 -0.699756 -0.734786 -0.803571 -0.883844 -0.978605 -0.741069 -0.866344 -0.858351 -0.801766 -0.761668 -0.683628 -0.627350 -0.506187 -0.707946 -0.700664 -0.259848 -0.858225 -0.307772 -0.678013 0.058358 -0.121256 -0.442056 -0.305852 -0.316712 -0.257132 -0.605105 -0.253721 -0.436498 -0.910805 -0.877986 -0.172651 -0.820315 -0.326182 -0.449749 -0.752898 -0.088171 -0.453556 -0.369408 -0.332346 -0.907086 -0.498452 -0.463661 -0.671711 -0.009520 0.541313 -0.171324 -0.227484 -0.622631 -0.706215 0.512115 -0.131664 -0.706421 -0.972236 -0.449310 -0.183893 0.968125 0.394682 0.108627 -0.892563 -0.539008 -0.617520 -0.373179 -0.557548 0.655511 0.507690 -0.434875 -0.427005 -0.876986 0.024535 0.434574 -0.055280 0.608241 0.449475 -0.658803 -0.158702 -0.391955 0.470349 -0.899674 0.040670 -0.458653 0.662904 0.627474 -0.601289 -0.401273 0.245150 -0.074093 0.739119 -0.706833 0.850815 -0.593744 0.025608 -0.353424 -0.296692 -0.623279 -0.383586 0.164891 -0.629706 0.937897 -0.345422 -0.887167 0.976352 -0.483679 0.090654 -0.803488 0.308720 0.129242 -0.912719 -0.007080 0.418224 0.567486 -0.490948 -0.033761 -0.590210 0.674042 -0.952820 0.848557 -0.443259 0.544138 -0.745513 -0.265625 -0.539490 0.258789 0.033857 -0.953381 0.083710 -0.449878 0.516480 0.026210 0.033764 -0.402435 -0.592840 -0.922901 -0.277277 -0.647859 -0.761595 -0.395811 -0.529266 -0.595111 -0.050994 0.099301 0.239389 -0.384776 -0.005859 0.194053 0.067259 -0.340767 -0.105190 0.271733 0.006134 0.423932 -0.588562 0.625336 0.362152 0.041384 0.733396 -0.372736 0.124979 -0.783970 0.528137 0.791766 -0.520294 -0.299227 0.521345 -0.801536 -0.597992 0.740523 -0.017120 -0.915649 0.635486 -0.628875 0.038544 -0.270448 0.014085 0.144780 -0.563071 -0.264386 0.901123 1 
0.503395 -0.647949 -0.449190 -0.268961 -0.576744 -0.066671 -0.473234 -0.309113 0.639236 0.990969 -0.385010 0.162968 -0.689071 0.495625 0.010097 -0.291398 -0.880805 -0.955082 -0.369895 0.502581 -0.542226 0.239480 0.750577 0.976548 -0.377277 -0.449127 0.194366 -0.614665 0.101327 -0.209948 -0.245941 -0.002907 0.011383 -0.381150 -0.762993 0.093068 0.507996 0.091394 0.568277 0.959747 -0.507507 0.144470 0.820221 -0.670646 -0.480178 -0.922587 -0.885235 -0.991786 -0.982290 -0.642722 -0.893851 -0.995064 -0.844928 -0.863482 -0.904633 -0.717429 -0.987107 -0.776718 -0.580571 -0.698796 -0.893702 -0.992389 -0.963248 -0.873852 -0.774358 -0.733273 -0.701866 -0.731340 -0.536803 -0.855100 -0.669210 -0.797568 -0.622456 -0.650545 -0.549247 -0.875607 -0.900107 -0.651812 -0.957897 -0.695161 -0.712580 -0.825477 -0.473523 -0.388578 -0.060559 -0.962727 -0.345369 0.162965 -0.335245 0.279201 -0.903185 -0.969952 -0.710078 -0.981985 -0.740065 -0.939359 -0.920639 -0.822905 -0.806643 -0.881591 -0.732046 -0.674408 -0.921290 -0.648545 -0.928468 -0.718632 -0.937330 -0.856562 -0.922923 -0.819155 -0.811598 -0.652736 -0.744297 -0.554431 -0.597008 -0.645804 -0.733682 -0.502833 -0.769272 -0.726699 -0.393730 -0.872946 -0.825085 -0.411484 -0.791837 -0.548794 -0.559639 0.454981 0.381372 -0.544515 0.256665 -0.827729 -0.819130 0.244854 -0.866677 0.807349 -0.936915 -0.368978 -0.346587 0.299836 -0.663644 -0.353961 -0.587826 0.371033 0.614166 -0.841705 0.030975 -0.929460 0.513541 -0.540593 0.214810 -0.626004 -0.107147 0.223969 0.337483 0.164288 -0.641922 -0.840155 0.551459 0.379272 -0.624279 -0.152069 -0.848450 -0.501526 0.277679 0.319013 0.038605 -0.028656 -0.150334 -0.086344 -0.125871 -0.137338 0.529785 0.642242 -0.837006 0.197164 -0.858429 0.599551 -0.198822 -0.822540 -0.156464 -0.744971 0.547774 -0.081320 0.974622 -0.867165 0.146170 0.527656 0.095132 0.757507 0.348562 -0.739354 0.085837 -0.912503 -0.727061 -0.026855 -0.521149 -0.130451 0.582827 0.032532 -0.753139 -0.464215 -0.776682 0.571970 0.485059 -0.180806 0.397523 0.604921 0.146132 -0.437584 -0.910509 -0.356430 -0.609526 -0.768545 -0.439817 0.221415 -0.914886 0.839111 -0.212494 -0.758301 -0.135254 -0.058228 -0.165985 -0.200799 -0.697410 0.823375 0.817504 -0.370678 -0.140415 -0.346764 -0.604660 0.611244 -0.610594 -0.851534 -0.899627 0.214404 0.775189 -0.460706 -0.707460 0.792857 -0.425111 0.917858 -0.874257 0.997064 -0.264809 0.454415 0.862828 0.966141 -0.896435 0.379507 0.532488 -0.805599 -0.764679 -0.623385 -0.373908 0.263397 -0.397808 -0.194302 0.507605 0.059079 0.261844 -0.597746 0.427574 -0.911835 0.127014 -0.517273 0.857509 0.454296 -0.550185 -0.610819 -0.857963 -0.118381 0.584808 -0.710590 -0.957699 0.397661 0.580908 -0.077109 -0.875297 -0.323029 -0.566061 -0.061206 0.846326 0.310013 -0.839706 0.077664 0.177126 -0.146378 0.804071 -0.575914 0.254787 -0.933329 0.062739 -0.104865 0.138813 -0.137397 0.181371 0.729554 -0.689177 -0.889460 -0.386027 0.599018 -0.757454 0.454567 0.287878 0.467574 0.509261 0.412104 0.322539 -0.280415 0.384765 0.828324 0.501534 0.132287 0.454288 -0.800654 -0.853837 -0.897553 -0.975028 -0.847281 -0.988518 -0.884076 -0.943405 -0.871381 -0.996351 -0.985383 -0.845088 -0.926831 -0.935695 -0.917041 -0.942432 -0.993903 -0.956368 -0.959234 -0.934155 -0.880439 -0.980433 -0.872902 -0.896205 -0.951188 -0.923569 -0.976525 -0.809591 -0.977205 -0.745584 -0.890483 -0.871546 -0.787208 -0.918478 -0.931235 -0.730892 -0.029872 -0.584534 -0.495890 -0.020662 -0.366041 -0.151888 0.071035 -0.554054 -0.685338 -0.840758 -0.999588 -0.828208 -0.992993 -0.965995 -0.941480 -0.908779 -0.998559 -0.868044 -0.949758 -0.974736 -0.828550 -0.948007 -0.907104 -0.952989 -0.969352 -0.964391 -0.936809 -0.960394 -0.816508 -0.985090 -0.959416 -0.980736 -0.998587 -0.979860 -0.868158 -0.830651 -0.295933 -0.648921 -0.369923 -0.815783 -0.681120 -0.736870 -0.724534 -0.656694 -0.845728 0.271853 0.158847 0.119217 0.158364 -0.389780 -0.079068 0.301384 0.286652 0.246300 -0.199833 0.138447 -0.199728 0.380494 -0.126085 -0.873197 -0.136756 0.478638 -0.403994 0.196952 -0.728271 0.977684 -0.482601 -0.346558 0.167463 0.464471 0.411590 -0.508643 -0.242982 -0.251704 0.956399 0.717271 0.752463 -0.491063 0.215442 -0.585490 0.344714 0.631287 -0.663856 0.653764 -0.860962 0.648864 0.162872 -0.581009 0.027841 -0.492523 0.869817 -0.408149 0.451871 0.820257 0.003678 0.556920 -0.362447 0.219608 -0.284576 -0.409439 -0.496577 0.725639 -0.663334 -0.775222 -0.532110 -0.264324 0.508752 -0.260960 -0.922456 -0.659222 0.826509 0.180156 0.481926 -0.331118 0.783386 0.781072 0.471118 -0.195801 -0.164538 0.093402 0.100499 -0.291293 -0.090320 0.328251 0.904250 -0.906085 0.875975 -0.548950 -0.357178 0.020163 0.148982 -0.675627 -0.845490 0.825256 0.826391 0.653481 0.054230 0.630090 -0.990218 -0.306582 0.461654 0.559933 0.481432 0.467327 0.812778 0.315579 0.971352 -0.985315 -0.202503 -0.403540 0.193116 0.011381 -0.773549 -0.505276 0.335978 -0.153637 0.304189 0.143292 0.294793 -0.869969 -0.948986 -0.267755 0.145151 0.654011 0.539749 0.116302 -0.472976 -0.085110 0.028870 0.606421 -0.562601 0.168155 0.936732 -0.580273 0.012787 0.509414 0.668962 -0.401436 0.535842 -0.439992 -0.716169 -0.666135 -0.830177 0.188808 -0.331793 0.114436 -0.039241 0.348728 -0.798235 0.656493 -0.153198 -0.735713 0.716483 -0.007543 -0.829610 0.836731 0.548998 0.606866 0.761151 -0.330010 -0.207040 -0.010348 0.120407 -0.008547 0.131868 -0.885683 0.294214 0.989534 -0.903445 0.209976 0.645842 0.950484 -0.211386 0.395005 0.937289 0.076345 0.024620 0.426466 0.623475 -0.033604 0.753302 0.392636 -0.216722 0.832629 0.594353 0.461486 0.715835 -0.447025 0.865397 0.700060 0.444880 0.271660 -0.050218 0.046715 -0.859985 -0.743569 -0.819402 -0.889606 -0.918984 -0.831570 -0.949710 -0.876630 -0.929274 -0.970398 -0.985851 -0.983942 -0.996409 -0.971280 -0.974714 -0.942605 -0.956925 -0.992669 -0.983178 -0.930397 -0.990812 -0.954142 -0.950175 -0.936948 -0.943015 -0.954516 -0.955356 -0.631855 -0.794072 -0.741539 -0.910806 -0.861125 -0.792900 -0.851956 -0.982889 -0.656355 -0.498893 -0.771438 -0.196314 -0.300907 -0.433708 -0.075869 -0.472161 -0.604281 -0.315706 -0.890646 -0.985582 -0.975935 -0.708914 -0.962662 -0.995832 -0.965432 -0.849468 -0.974074 -0.948817 -0.956741 -0.981139 -0.966804 -0.981707 -0.976162 -0.940172 -0.948379 -0.929656 -0.826545 -0.925099 -0.919577 -0.898642 -0.925491 -0.812190 -0.885099 -0.813893 -0.849439 -0.635929 -0.261677 -0.247620 -0.697331 -0.344726 -0.872458 -0.888243 -0.890954 -0.567808 0.061448 0.266965 -0.641616 0.067206 -0.440247 0.193140 -0.561963 -0.699240 -0.082390 0.646452 0.513870 -0.790049 -0.548777 -0.525825 -0.670012 0.367834 -0.476217 -0.577692 -0.089759 0.066918 0.234598 0.128004 -0.782929 -0.417155 -0.510810 0.307564 -0.286984 -0.210536 0.350487 0.435534 -0.549683 0.252547 -0.261469 0.211141 0.531664 0.288086 0.049207 0.015304 -0.736066 0.245854 -0.894914 0.880148 0.227695 -0.073490 -0.062194 -0.063393 -0.083848 -0.386841 -0.499133 0.312072 -0.821661 0.046173 0.226396 0.596375 0.683180 0.074171 -0.322171 0.266548 -0.938947 0.142482 0.462527 -0.595481 -0.008677 -0.158529 0.554404 -0.828805 -0.977948 -0.920431 -0.246370 0.289305 0.408236 -0.711358 -0.210182 0.020883 0.612673 0.594923 -0.825018 -0.569005 -0.354311 -0.266557 -0.527374 -0.147700 0.833095 0.187737 -0.815787 -0.755330 -0.364762 0.900958 -0.629235 0.094896 0.182760 0.120769 -0.467484 -0.646699 -0.326882 0.311503 -0.447046 -0.267761 0.477684 0.772003 -0.094088 0.823944 -0.440522 -0.063758 0.260498 -0.617985 0.082824 0.881736 -0.913001 -0.428948 -0.052944 0.138108 -0.424351 0.903341 0.539549 -0.341396 -0.710788 -0.770653 -0.575517 0.166586 0.231962 -0.884837 -0.885737 -0.359298 -0.278538 0.476635 0.473832 -0.951495 -0.431627 -0.490520 0.226781 0.150050 0.358720 -0.548040 0.638077 0.833496 -0.903958 0.051864 0.219773 -0.820437 0.494668 0.712739 -0.428810 0.769132 0.029851 -0.181886 -0.498360 -0.283405 -0.152650 0.765024 -0.295939 0.853189 0.845789 -0.614998 0.540997 -0.584376 -0.894755 0.313194 -0.365368 0.835436 0.567524 -0.186821 -0.848031 0.630864 0.216337 -0.219391 -0.424238 -0.635855 0.982817 -0.063258 0.073206 0.629669 0.306854 0.273400 0.266627 0.349013 0.417683 -0.346884 -0.755829 -0.605713 0.177054 -0.543361 0.575822 -0.492735 -0.726544 0.631600 0.808333 0.523531 0.680693 -0.739453 -0.868282 -0.828776 -0.961124 -0.904425 -0.936279 -0.767770 -0.816891 -0.733794 -0.986835 -0.996130 -0.999473 -0.967561 -0.980441 -0.989094 -0.948687 -0.934815 -0.932544 -0.942882 -0.936571 -0.945518 -0.988364 -0.953922 -0.975129 -0.968314 -0.956640 -0.913911 -0.817171 -0.965384 -0.678580 -0.994484 -0.731754 -0.644427 -0.783492 -0.892295 -0.697031 -0.793732 -0.464675 -0.245901 -0.495478 -0.181005 -0.736307 -0.689666 -0.739795 -0.075830 -0.713076 -0.707181 -0.909061 -0.856869 -0.848666 -0.840338 -0.648470 -0.605123 -0.690311 -0.993428 -0.928402 -0.934120 -0.973211 -0.972910 -0.991102 -0.955203 -0.941679 -0.950628 -0.877693 -0.815996 -0.807542 -0.924861 -0.826329 -0.802779 -0.906152 -0.861288 -0.859384 -0.326557 -0.460246 -0.908491 -0.508417 -0.961916 -0.259813 -0.879412 -0.869368 -0.419108 0.273244 0.121659 0.008004 -0.235994 -0.671141 -0.098143 -0.565191 0.220404 0.126635 -0.410614 0.921503 0.244482 -0.828662 0.158330 0.467111 -0.150238 -0.279144 0.295891 0.633326 0.491871 -0.759045 -0.890087 0.116963 -0.826662 -0.919764 0.182059 0.467126 0.832293 -0.389982 -0.442898 0.174205 0.215106 0.606209 0.641961 0.330585 0.432930 0.054169 -0.498718 -0.631531 -0.603989 -0.607780 0.048053 0.827979 -0.128120 -0.799011 -0.022957 -0.370571 -0.457892 -0.193985 0.432770 -0.608368 -0.043030 -0.330200 -0.667746 -0.733891 0.548255 0.324348 -0.288892 -0.599170 -0.130176 -0.410801 -0.515818 0.654628 -0.638517 0.558551 0.530621 -0.650476 -0.545769 -0.637658 -0.189716 -0.131997 -0.574782 0.603047 0.673917 -0.061748 -0.537082 -0.011087 0.286785 0.651784 -0.364234 -0.048249 0.840438 -0.139374 0.523682 -0.108588 -0.293791 0.209238 -0.678509 -0.842770 -0.613894 0.918701 -0.611097 -0.244214 -0.967381 -0.430121 0.135057 0.744902 -0.110740 0.728185 -0.933446 -0.714777 -0.924066 -0.896714 -0.592354 0.754561 -0.016406 -0.471036 -0.746123 -0.115509 0.556791 -0.106988 -0.571907 -0.903570 0.633258 0.083525 -0.694583 -0.475301 0.988009 0.304897 -0.979943 -0.002314 -0.685468 -0.270770 0.368368 0.461679 0.122921 0.133087 -0.082214 -0.140816 -0.915178 -0.657346 -0.390772 -0.365880 -0.383792 -0.223904 0.094122 0.410575 -0.358346 -0.369692 0.082412 -0.768829 0.081945 -0.536603 -0.021186 -0.902325 0.745753 -0.836150 -0.715549 0.163813 -0.399822 0.463757 0.097939 0.123939 0.613188 0.188752 0.930352 -0.409993 -0.168805 -0.733923 -0.799797 -0.052001 0.323612 0.290849 -0.046413 -0.693893 -0.020193 -0.208909 -0.910004 0.850582 0.106537 -0.091556 0.430990 0.009682 0.377982 -0.435300 0.458970 0.529877 0.204820 0.045216 0.544950 -0.564004 -0.130201 -0.549957 0.576008 -0.932770 -0.035549 0.883484 0.125127 -0.901550 -0.787271 -0.693149 -0.941388 -0.958205 -0.869749 -0.822923 -0.886701 -0.984270 -0.748666 -0.949852 -0.949855 -0.978587 -0.980042 -0.988976 -0.960460 -0.977250 -0.980080 -0.999253 -0.966569 -0.979485 -0.984498 -0.977809 -0.981282 -0.973425 -0.945176 -0.974507 -0.950881 -0.991998 -0.804902 -0.709120 -0.805789 -0.932512 -0.887693 -0.897504 -0.886796 -0.701928 -0.875711 -0.523459 -0.184013 -0.785630 -0.765315 -0.683772 -0.496026 -0.773328 -0.768952 -0.845633 -0.818689 -0.654749 -0.943499 -0.850258 -0.702901 -0.930809 -0.908170 -0.788230 -0.940243 -0.950048 -0.984147 -0.991563 -0.982243 -0.964375 -0.953906 -0.972687 -0.965401 -0.905326 -0.875758 -0.864492 -0.899481 -0.973332 -0.886892 -0.959211 -0.896204 -0.974745 -0.869641 -0.792333 -0.930203 -0.749889 -0.703665 -0.633063 -0.418263 -0.875749 -0.776232 -0.842430 -0.401046 -0.513021 -0.518765 -0.264216 -0.329291 -0.392167 -0.271186 -0.805933 -0.521973 -0.440331 -0.042658 -0.904819 0.058722 0.499038 -0.227253 0.364606 0.212967 0.252693 -0.351081 -0.539778 0.123524 -0.683623 -0.228179 -0.867983 -0.249333 0.649050 0.609773 0.553724 -0.476171 -0.791829 0.379820 0.000231 0.708124 0.587769 -0.127631 0.098932 -0.081774 -0.391412 -0.237597 -0.557730 0.536158 0.693634 0.010735 -0.745626 -0.129193 -0.915493 0.706953 0.294510 -0.000055 -0.487000 0.209459 0.099030 0.663574 0.502951 0.862669 -0.837627 -0.579529 -0.729192 -0.118773 -0.463912 -0.432945 -0.238927 -0.403524 -0.420212 -0.053535 -0.374668 -0.850721 -0.052140 -0.046874 0.142982 0.718435 -0.285300 -0.115849 0.393097 -0.076655 -0.685710 -0.587408 0.129089 -0.845015 -0.901092 -0.710319 0.893944 0.147160 -0.600388 0.143964 -0.467996 -0.633507 0.603208 -0.332799 -0.918036 -0.209700 0.362394 -0.678822 0.387642 -0.919666 -0.261169 -0.670166 -0.228607 -0.050769 -0.165856 0.633121 -0.495510 -0.295262 -0.752760 -0.706992 0.401497 0.004252 -0.717830 -0.662899 0.893400 -0.707420 -0.499986 -0.678586 -0.284073 -0.034647 0.832286 0.902227 0.699837 0.932912 -0.129646 0.008030 -0.454886 0.877638 0.837297 -0.882722 0.184823 -0.249692 0.053469 -0.024709 0.046623 -0.924103 -0.204630 -0.847801 -0.417770 0.287395 -0.704935 -0.764879 -0.874139 -0.692786 -0.585144 0.568056 0.688520 0.314812 -0.483748 -0.552940 0.280347 -0.618782 -0.579932 0.984368 0.072595 -0.025787 0.428355 -0.481106 -0.340730 0.785506 -0.019399 0.724788 0.650706 -0.616571 -0.606476 0.174705 0.578462 -0.050497 -0.572659 0.396914 0.732106 -0.007574 -0.108291 0.666822 0.371192 0.249981 0.760504 -0.224875 -0.611930 -0.799750 0.712404 0.817498 -0.956221 -0.576402 0.432184 0.149210 -0.175385 0.941945 -0.247469 -0.041804 -0.596349 0.093000 0.991295 -0.986011 -0.944189 -0.980136 -0.979371 -0.937898 -0.999802 -0.973100 -0.896824 -0.985016 -0.942529 -0.998310 -0.973515 -0.903307 -0.900907 -0.942576 -0.941488 -0.963967 -0.954419 -0.965601 -0.944267 -0.960271 -0.902730 -0.942901 -0.986864 -0.922127 -0.980952 -0.967031 -0.853565 -0.928050 -0.774747 -0.978823 -0.722830 -0.757109 -0.943433 -0.943313 -0.821800 -0.816126 -0.854876 -0.307633 -0.846197 -0.599215 -0.848204 -0.946663 -0.755102 -0.732277 -0.972545 -0.928303 -0.969371 -0.923825 -0.855568 -0.924390 -0.916443 -0.897259 -0.877625 -0.998227 -0.979949 -0.891382 -0.986143 -0.972959 -0.952581 -0.924824 -0.993866 -0.930096 -0.991794 -0.912952 -0.950650 -0.973497 -0.879002 -0.941925 -0.901866 -0.857359 -0.919385 -0.948313 -0.778371 -0.461153 -0.666761 -0.947345 -0.796631 -0.641587 -0.923607 -0.717804 -0.747351 -0.297818 -0.736993 -0.883463 -0.229597 -0.713336 -0.603251 -0.924178 -0.861643 -0.931494 -0.237681 -0.642897 -0.258208 -0.502319 -0.454806 0.440912 0.107573 0.988575 0.316012 -0.597175 0.010102 0.162902 0.365541 -0.087377 0.563507 0.803016 -0.815320 -0.206077 0.083837 -0.110685 0.035131 0.788952 -0.267130 -0.210339 0.966809 0.476057 0.060149 -0.628764 0.389386 -0.196851 -0.306342 0.913140 0.959169 -0.565184 -0.594181 -0.416249 -0.109505 0.118215 -0.148475 0.013733 -0.231823 0.389012 -0.572216 0.472351 -0.560369 -0.427981 -0.247528 -0.540693 0.195806 -0.586928 -0.749199 0.601101 0.151449 -0.894820 0.924889 0.104546 -0.436516 0.273512 0.563729 0.903815 -0.260718 -0.590317 0.998638 -0.894231 0.276870 -0.141112 -0.962933 -0.272865 0.124935 -0.736617 -0.614138 0.852932 0.134690 -0.195739 -0.348017 0.556847 -0.292450 -0.075432 -0.907118 -0.083216 0.581514 0.091096 -0.904217 -0.374851 0.519726 0.191722 -0.778681 0.419525 0.376404 0.109082 -0.866269 -0.636562 -0.948319 -0.903083 0.397045 -0.424272 -0.224253 -0.995980 0.998052 -0.085571 0.889723 -0.926486 -0.635783 0.671145 0.744082 -0.609457 0.066432 -0.854187 0.928133 0.407112 -0.797750 -0.920984 -0.404606 -0.836136 -0.413773 0.191534 -0.437049 0.128702 0.206058 0.734240 0.657513 0.661715 -0.601345 0.891508 -0.501904 -0.899499 -0.871606 -0.918726 0.258371 0.360968 -0.302602 -0.457092 0.670593 -0.462248 0.502026 -0.864500 -0.786089 -0.779202 0.015788 -0.859512 -0.793606 -0.807617 -0.783967 0.040375 0.280756 0.458545 0.276918 -0.517562 0.489743 0.398281 0.884771 0.611115 0.301056 -0.772461 0.158818 -0.740869 -0.312398 -0.355221 -0.023731 -0.382606 0.276098 -0.024701 0.478063 -0.756716 0.159349 -0.421386 -0.222794 0.460265 -0.714553 -0.462679 0.565801 -0.173425 -0.393601 0.084516 -0.543853 0.394811 -0.271409 -0.664387 0.187027 -0.860510 -0.751307 -0.638570 -0.985569 -0.589017 -0.979587 -0.972665 -0.898735 -0.855684 -0.935972 -0.906620 -0.750072 -0.883794 -0.749127 -0.759305 -0.875706 -0.836656 -0.849826 -0.831047 -0.792562 -0.632610 -0.820676 -0.949722 -0.951309 -0.985827 -0.928139 -0.728679 -0.928462 -0.759090 -0.588306 -0.695101 -0.796402 -0.769813 -0.761984 -0.787065 -0.878568 -0.943613 -0.865470 -0.626209 -0.626663 -0.932012 -0.635272 -0.856906 -0.602452 -0.827265 -0.713243 -0.735961 -0.791895 -0.869611 -0.795553 -0.941289 -0.948057 -0.934260 -0.896272 -0.862587 -0.872587 -0.564593 -0.739244 -0.733344 -0.875909 -0.799632 -0.979762 -0.907397 -0.992002 -0.968004 -0.995252 -0.828502 -0.857148 -0.512778 -0.832142 -0.870078 -0.809422 -0.826085 -0.723788 -0.791407 -0.498124 -0.900340 -0.669459 -0.789620 -0.634915 -0.781578 -0.569457 -0.338906 -0.880380 -0.381318 -0.838848 -0.881501 -0.794332 -0.642313 -0.412843 0.050787 0.666502 0.581522 -0.129147 -0.336879 -0.421872 -0.350424 0.330493 0.794642 -0.811374 0.469604 0.046424 -0.063956 -0.053387 -0.094054 -0.331835 -0.522346 0.285117 -0.302276 -0.321745 0.421006 -0.624138 0.977309 0.677553 0.023185 0.590391 0.652892 -0.119330 0.052360 -0.857292 0.333597 -0.887517 -0.827223 0.119679 -0.860132 -0.499728 0.215913 -0.438726 -0.468156 0.339149 0.370943 0.450344 -0.591083 0.474861 0.043969 -0.687671 -0.104266 0.377191 -0.170940 -0.290053 0.010236 0.188223 -0.704182 -0.850545 -0.619441 -0.262540 -0.347723 0.290784 0.438965 -0.358783 -0.869181 0.731258 -0.517262 0.138337 -0.169279 -0.306093 0.364484 0.011842 0.683167 0.772386 0.759125 0.442596 -0.599325 -0.694224 -0.965690 0.340070 -0.910464 0.951129 -0.509377 -0.042760 0.535337 -0.583997 -0.789529 0.868267 0.801556 -0.091708 -0.945782 -0.379059 0.703970 0.204071 0.851722 0.478970 0.184408 -0.388711 -0.446480 -0.965731 -0.347656 0.881286 -0.443497 -0.394154 -0.137610 -0.754757 0.086612 -0.885416 0.321470 -0.332456 -0.382637 -0.766676 -0.177537 0.874519 -0.643984 -0.448517 -0.402954 0.423737 -0.957080 -0.583426 0.841087 -0.582239 0.542535 -0.096427 -0.971252 0.610925 0.528632 0.635162 -0.106859 0.763062 0.182538 -0.531710 -0.378861 -0.059272 0.229873 0.076844 0.111337 0.548602 -0.814345 -0.145865 -0.710490 0.926947 -0.027322 -0.257436 0.054147 -0.671401 -0.127866 -0.640120 -0.413354 -0.787043 -0.885932 -0.219259 0.012519 -0.390732 -0.265511 -0.972202 0.036035 0.296675 0.561108 -0.272339 0.649541 0.019724 -0.656379 -0.274083 -0.150997 -0.567715 -0.885758 -0.293167 0.580832 -0.821749 -0.463951 -0.920253 0.540731 0.198234 0.243375 -0.567573 -0.465844 0.446696 0.611500 -0.320734 0.025154 -0.095392 -0.441789 -0.792190 -0.614629 -0.973393 -0.986857 -0.812518 -0.326735 -0.885832 -0.761551 -0.678950 -0.947671 -0.928582 -0.887755 -0.570798 -0.760482 -0.326921 -0.722258 -0.470442 -0.601705 -0.688861 -0.714643 -0.260910 -0.953759 -0.672022 -0.915313 -0.211119 -0.863574 -0.916908 -0.346826 -0.111053 -0.258914 0.046783 -0.216650 -0.298002 -0.885220 -0.182436 -0.532191 -0.426392 -0.581170 -0.913312 -0.290421 -0.276130 -0.130894 -0.165196 -0.456909 -0.395709 -0.726444 -0.359985 -0.722886 -0.705215 -0.914424 -0.730522 -0.889024 -0.734621 -0.775970 -0.783043 -0.367548 -0.577023 -0.870845 -0.653421 -0.740164 -0.764736 -0.595505 -0.822453 -0.778435 -0.748464 -0.795901 -0.535583 -0.387241 0.056849 -0.168142 -0.487563 -0.667314 -0.416430 -0.406607 -0.378952 -0.063725 -0.102858 0.143822 -0.064482 -0.119467 -0.480997 -0.262594 -0.614114 -0.471617 -0.048784 -0.038612 -0.146263 -0.617578 -0.418315 -0.473116 -0.386273 0.789161 -0.190108 0.087369 -0.724862 -0.031377 -0.289696 -0.191206 -0.384796 0.423191 -0.300235 -0.366799 0.910828 -0.253674 0.075132 0.515781 0.486225 0.177512 0.423346 -0.951284 -0.269002 -0.594981 -0.127705 -0.167235 -0.757041 0.403686 -0.817922 0.649750 -0.785530 0.351677 0.431713 -0.729432 0.631051 0.129798 0.372281 -0.330076 0.394052 -0.380524 -0.489698 -0.183432 0.750535 -0.348930 0.120261 -0.645170 -0.450491 0.752596 0.205771 0.042972 -0.044101 -0.721572 0.386561 0.108622 -0.304279 0.181651 -0.421959 -0.662228 -0.758209 -0.858135 -0.395078 -0.840474 0.627785 -0.419339 0.588599 0.714055 0.456787 -0.939556 -0.955475 0.557379 0.559845 -0.100239 -0.320675 0.760681 0.792206 0.380371 0.099420 -0.296921 0.624823 0.333024 0.078491 0.805084 -0.401123 0.041145 -0.244653 0.980560 0.104637 -0.259043 0.672876 -0.833518 0.384399 -0.596529 -0.883331 0.865091 0.694882 0.059095 -0.339167 0.533457 -0.633726 -0.812593 -0.987822 -0.436030 -0.902551 -0.328369 0.790907 -0.554169 0.175174 0.447873 -0.946501 -0.629297 -0.665340 0.158112 0.401337 0.915497 -0.703209 -0.232409 -0.321476 -0.311709 -0.042934 0.428589 0.657379 -0.502289 0.385532 -0.535835 0.008667 -0.059784 0.410167 0.670807 -0.886902 0.071484 0.197006 -0.324268 -0.162760 0.825544 0.099288 -0.173531 0.877215 -0.600494 1 
0.731019 -0.016846 -0.704754 -0.556291 -0.131379 -0.903131 -0.077351 0.767517 -0.527515 -0.575967 -0.428070 -0.919154 -0.896435 -0.509344 0.368207 -0.646189 -0.192698 0.632955 -0.133073 -0.566362 -0.211841 -0.694245 0.432103 -0.453601 -0.823745 -0.541706 -0.916718 0.409241 -0.536062 -0.582629 0.705200 0.576179 -0.671783 0.734858 -0.576732 0.647114 0.125153 -0.227051 -0.064138 0.482178 0.808685 0.613434 -0.258301 -0.849559 -0.962703 -0.745397 -0.899222 -0.934412 -0.975352 -0.853874 -0.824496 -0.890585 -0.938060 -0.917748 -0.873603 -0.679268 -0.909456 -0.824968 -0.917848 -0.685671 -0.942012 -0.951614 -0.941036 -0.913151 -0.903897 -0.841471 -0.724484 -0.886776 -0.449376 -0.755137 -0.814671 -0.728700 -0.585773 -0.839864 -0.648710 -0.833422 -0.960060 -0.987602 -0.738318 -0.893103 -0.687048 -0.613514 -0.685561 -0.310674 -0.011006 -0.520837 -0.065024 -0.383378 -0.236186 -0.482891 -0.781349 -0.688417 -0.616557 -0.899894 -0.502754 -0.781698 -0.927654 -0.909817 -0.939759 -0.772496 -0.705422 -0.967508 -0.746825 -0.560192 -0.958100 -0.756865 -0.774949 -0.877495 -0.961593 -0.622759 -0.489823 -0.635918 -0.948629 -0.601722 -0.930377 -0.955634 -0.899985 -0.529044 -0.787128 -0.972933 -0.294791 -0.410831 -0.712222 -0.889441 -0.545762 -0.843217 -0.198815 0.396634 0.015030 -0.381124 0.148018 -0.604130 -0.503917 -0.022133 -0.678725 0.111000 -0.801050 0.319576 -0.240536 -0.926661 0.400913 -0.206600 0.728122 0.421967 0.564728 0.332301 -0.106875 0.211352 -0.847819 0.267693 0.305852 0.574289 -0.804291 0.626282 0.128644 -0.144872 -0.947631 -0.957953 -0.707096 -0.249631 -0.094220 0.262390 0.190491 -0.640045 0.034439 -0.798869 -0.912750 -0.904629 -0.391391 0.756920 -0.769231 -0.592474 0.595947 0.458801 0.624908 0.171028 0.388519 -0.444757 0.707703 -0.048248 0.433441 -0.986092 -0.470764 -0.984876 0.213701 -0.281036 -0.069478 -0.358869 0.270906 -0.486267 -0.733729 0.063360 -0.843796 0.214003 -0.112599 -0.982269 -0.944824 -0.627873 -0.127148 0.893036 0.613266 0.367070 0.471410 -0.307586 -0.463724 -0.459723 0.459497 0.379507 0.499631 -0.795999 0.117019 0.272991 0.675655 -0.137975 0.368882 0.626793 -0.039642 -0.661469 -0.957184 -0.502960 0.822754 -0.419128 0.365997 -0.514956 0.539765 0.286893 -0.649103 -0.324369 -0.188710 0.053638 -0.689411 0.871069 0.998142 0.016522 0.144473 -0.639717 -0.763128 0.454183 -0.594823 -0.533167 0.153072 -0.221156 0.269346 -0.566349 -0.836373 0.026514 0.086224 -0.272409 -0.511464 0.514661 0.575639 0.244803 0.914109 -0.361092 -0.830348 -0.725433 -0.488899 0.837831 0.728616 0.596315 0.738402 0.639420 0.165931 -0.914093 -0.986847 0.218689 -0.061925 -0.649438 0.679731 -0.951293 0.780709 0.554956 -0.820190 -0.286161 -0.224685 -0.613432 -0.585014 0.105297 0.746287 -0.471539 -0.187769 -0.967425 -0.137789 -0.374939 0.842972 0.791584 -0.159257 -0.731757 -0.935763 0.364874 -0.466066 0.905485 0.757914 0.298572 0.154413 -0.891663 0.052927 0.635596 -0.353633 0.053807 -0.243252 0.378232 -0.732611 0.767897 0.426741 -0.228920 0.145538 0.528919 0.364602 0.096807 -0.170885 0.305709 0.763460 0.641099 0.524021 -0.811405 -0.903781 -0.962452 -0.907147 -0.895590 -0.852062 -0.925957 -0.969821 -0.896375 -0.990773 -0.918045 -0.885510 -0.975597 -0.936523 -0.946266 -0.944775 -0.959285 -0.957154 -0.929097 -0.882005 -0.974024 -0.921312 -0.934101 -0.918230 -0.999684 -0.914587 -0.931937 -0.901380 -0.631041 -0.710612 -0.919129 -0.735722 -0.738053 -0.658468 -0.874244 -0.718657 -0.696776 -0.001716 -0.585320 -0.761014 -0.223112 -0.586731 -0.408485 -0.644221 -0.560800 -0.875824 -0.995101 -0.897557 -0.965743 -0.982058 -0.992291 -0.914554 -0.851344 -0.924979 -0.971403 -0.979453 -0.910543 -0.949150 -0.907702 -0.961702 -0.971179 -0.937791 -0.995351 -0.837151 -0.829754 -0.930077 -0.915310 -0.904233 -0.893231 -0.843133 -0.916474 -0.888707 -0.736669 -0.583774 -0.592440 -0.600781 -0.335880 -0.430532 -0.606609 -0.720025 -0.539073 -0.032184 -0.288809 -0.579005 -0.197365 -0.146425 -0.266765 -0.576528 0.120881 0.005032 -0.721904 -0.819338 0.857383 -0.096581 0.280143 0.567427 0.588630 0.464966 -0.472934 0.861703 -0.290238 -0.291386 -0.587919 -0.694294 0.104278 0.147604 -0.661655 -0.857194 0.000441 0.307263 0.972549 -0.182673 0.261951 -0.162847 -0.659553 0.423236 -0.661293 0.306854 -0.663585 0.641991 -0.499564 0.528201 -0.450287 0.779520 -0.351975 0.470642 -0.159753 0.410224 0.683521 -0.172284 0.706373 0.997321 -0.534850 0.534614 0.817508 -0.445330 -0.097879 -0.349360 -0.759700 -0.323885 -0.133254 -0.978766 0.177401 0.237537 -0.544160 0.144267 -0.470888 -0.339065 0.029414 -0.866936 0.695069 0.742423 -0.562886 -0.556702 0.260618 -0.090371 0.593941 0.722276 0.455726 -0.103861 -0.125855 0.659984 -0.263867 -0.050751 -0.885986 -0.898407 -0.345409 -0.750854 0.085388 0.784023 0.303553 0.411505 -0.065641 0.416421 0.674218 -0.967679 0.320966 -0.297383 -0.639215 0.427851 -0.052157 0.104273 -0.948184 -0.219622 0.293813 -0.364381 -0.106328 -0.653563 -0.009118 -0.769969 -0.019539 -0.777393 0.410929 0.457630 -0.236864 0.791561 0.452480 0.274315 0.210629 0.980888 0.233807 -0.926387 0.800589 0.342062 -0.366211 -0.289132 0.341450 0.949205 0.252140 -0.061364 -0.859344 0.029018 -0.873942 -0.660694 0.566751 0.248689 -0.645727 -0.409597 -0.975468 -0.829323 0.308088 -0.700841 0.050136 0.167495 -0.161794 -0.738860 -0.281730 0.364200 -0.840224 0.720515 0.002110 -0.676880 0.512478 -0.763392 -0.062618 -0.731718 0.013837 -0.214470 -0.612673 0.129957 0.315682 0.094258 0.390838 -0.145322 -0.690555 -0.012655 -0.589427 0.876667 -0.312028 0.783698 0.533339 0.128222 0.097291 -0.204656 0.261850 0.207771 -0.543698 0.287085 -0.497400 0.673091 -0.645978 0.370192 0.848699 -0.519784 0.865239 -0.126048 0.569314 0.776102 0.942502 -0.216657 -0.926626 -0.905719 -0.837063 -0.964184 -0.866242 -0.753493 -0.838396 -0.954877 -0.720756 -0.961171 -0.979412 -0.979247 -0.973708 -0.995117 -0.955233 -0.969651 -0.978448 -0.968388 -0.987015 -0.979690 -0.946367 -0.975800 -0.946789 -0.925552 -0.953931 -0.969562 -0.946751 -0.812301 -0.769445 -0.799395 -0.800161 -0.786208 -0.682635 -0.978465 -0.947685 -0.988331 -0.898553 -0.932405 0.077283 -0.925536 -0.850506 -0.882835 -0.815706 -0.378253 -0.748191 -0.808153 -0.964053 -0.859076 -0.924360 -0.945753 -0.865809 -0.681861 -0.872871 -0.977970 -0.997633 -0.985245 -0.972062 -0.980348 -0.996802 -0.958930 -0.971589 -0.995269 -0.984509 -0.944721 -0.957513 -0.890331 -0.943882 -0.964427 -0.959903 -0.910742 -0.918745 -0.979855 -0.739908 -0.580529 -0.470974 -0.518866 -0.512469 -0.271716 -0.521708 -0.811981 -0.361589 0.172208 -0.678807 -0.785797 -0.720493 -0.329378 -0.163775 -0.549795 -0.069213 0.176129 -0.450356 0.879036 0.669694 0.043957 0.316142 -0.649504 -0.818671 -0.214793 0.743763 0.637632 0.933747 0.460751 -0.368339 -0.539479 0.513821 0.670391 0.311982 0.306042 0.546730 0.884633 -0.662398 -0.070312 0.261750 -0.417604 -0.356315 0.290341 0.234589 -0.764879 -0.009266 0.064251 0.214962 0.327053 -0.263876 -0.031982 -0.377585 0.802896 -0.010562 0.910833 0.647919 -0.404850 0.359059 0.097827 0.756151 -0.076694 0.463610 -0.427135 0.465560 0.745617 -0.791927 -0.912593 -0.501754 0.105951 0.954809 0.250626 0.044104 -0.981075 -0.679953 -0.088089 0.245765 -0.775960 0.013988 -0.390657 -0.993887 -0.195176 0.331560 -0.277511 -0.011925 -0.230580 -0.460825 0.237466 -0.007147 0.689941 -0.251142 -0.604483 -0.496510 0.008876 -0.685552 0.056770 0.477591 0.020552 -0.774951 0.298855 0.937651 0.333093 0.046577 -0.492331 -0.296707 -0.354287 0.238739 -0.729767 -0.734680 -0.830874 0.166290 -0.316620 -0.633669 0.289436 -0.550350 -0.546531 -0.745498 0.736344 -0.390328 -0.204456 -0.933747 -0.328648 -0.233641 -0.766475 0.481230 0.064217 0.827608 -0.060769 -0.514755 0.440481 -0.004466 -0.216162 0.607708 -0.864752 -0.850950 0.215238 0.678265 0.333429 -0.983274 -0.672642 0.755097 0.657208 0.826668 -0.462044 -0.312706 0.155990 0.163485 0.075843 0.475563 -0.527975 0.593506 -0.871171 0.618748 -0.222488 -0.687547 0.174786 -0.531405 -0.601542 -0.689814 0.996191 0.322261 -0.274103 -0.918358 0.655636 -0.426876 -0.728194 -0.801744 0.975824 -0.700853 -0.532167 -0.457054 0.916081 -0.152504 0.113043 -0.483308 -0.092151 0.956081 0.539520 -0.728490 0.116922 -0.727142 -0.278839 0.506434 -0.132397 0.713774 0.163268 0.932720 0.017573 -0.020416 -0.307268 0.164384 -0.330523 0.593253 -0.664755 0.760208 0.940232 0.690287 -0.341645 -0.958874 -0.677903 -0.671287 -0.847623 -0.951658 -0.743539 -0.824806 -0.811093 -0.782949 -0.963924 -0.972200 -0.940579 -0.976034 -0.990915 -0.995247 -0.970981 -0.945300 -0.989861 -0.959422 -0.961693 -0.925753 -0.963345 -0.970990 -0.937748 -0.943346 -0.951906 -0.923631 -0.830224 -0.604324 -0.622281 -0.767351 -0.832119 -0.970556 -0.864770 -0.961755 -0.677586 -0.079530 -0.144190 -0.086946 -0.322401 -0.965653 -0.807697 -0.846051 -0.903997 -0.024208 -0.795494 -0.840470 -0.897553 -0.990612 -0.815850 -0.909916 -0.808905 -0.690733 -0.699462 -0.995563 -0.977925 -0.981650 -0.973260 -0.983465 -0.973881 -0.941706 -0.988123 -0.992112 -0.890981 -0.974975 -0.842707 -0.858785 -0.943944 -0.800854 -0.932814 -0.775643 -0.945088 -0.500794 -0.617724 -0.483872 -0.613180 -0.726934 -0.256742 -0.652610 -0.636246 -0.559730 -0.470833 -0.648707 -0.765345 -0.116407 -0.909144 -0.169795 -0.098579 -0.495508 -0.415452 -0.923309 -0.930272 -0.782125 -0.323017 -0.032612 0.540239 -0.676178 0.928864 -0.023790 -0.182318 -0.339611 0.702986 0.242518 0.001003 0.662739 -0.643156 0.738591 -0.515434 -0.568641 0.937258 -0.392727 0.322084 -0.359354 0.378723 -0.348966 0.135256 -0.595574 0.863037 0.152557 0.132599 0.470776 0.395586 0.340809 -0.705088 -0.250746 -0.696716 0.392412 -0.740114 0.386981 -0.398916 0.926627 -0.504425 -0.872467 0.452179 0.138307 0.092120 -0.839953 0.339403 -0.367996 -0.345249 -0.200874 0.501088 0.275908 0.441166 -0.552256 0.763576 -0.709444 -0.020660 -0.358065 -0.757842 -0.995640 -0.450292 0.206179 -0.380917 0.104544 0.181882 -0.138226 -0.576706 -0.551180 -0.873214 -0.673444 -0.149780 -0.952239 -0.051514 0.142120 -0.551130 -0.248055 -0.615003 -0.277653 -0.537933 -0.847852 -0.930328 -0.676471 -0.784397 0.213792 -0.536736 0.350237 -0.052787 0.505720 0.673515 -0.375744 -0.303653 -0.273650 -0.492735 -0.029228 0.348132 0.199802 0.224259 -0.937078 0.396560 -0.748371 0.317247 -0.206920 0.322829 0.802563 -0.706599 0.544598 -0.768485 0.423807 -0.978267 -0.271783 -0.562904 0.114998 0.652741 0.199239 0.303305 0.851258 -0.883942 0.288818 -0.098366 -0.870684 -0.288935 -0.087004 0.826473 0.552037 -0.155683 0.148229 0.795343 0.474952 0.475010 -0.720253 -0.428072 -0.033400 -0.606628 -0.914780 -0.420373 -0.044418 0.544545 -0.870833 -0.015955 -0.090072 0.959507 0.201774 -0.417777 -0.240056 0.561184 -0.936987 -0.881648 -0.321802 0.387166 -0.517856 0.316517 0.790018 0.651154 -0.790688 0.477303 0.279471 0.173888 -0.364197 -0.314478 0.653447 0.684770 0.050749 -0.552408 0.223984 0.444595 0.304118 -0.192047 -0.587977 0.610030 0.865882 -0.641229 -0.277646 0.264964 -0.095669 -0.624561 0.940006 -0.946869 0.218683 -0.240234 -0.969397 -0.801835 -0.938029 -0.924617 -0.987336 -0.828322 -0.821230 -0.725092 -0.965407 -0.954949 -0.977300 -0.987212 -0.995607 -0.988861 -0.972962 -0.962434 -0.973407 -0.993916 -0.990129 -0.971196 -0.973250 -0.988230 -0.998669 -0.975420 -0.952791 -0.979956 -0.962050 -0.916648 -0.899397 -0.924568 -0.812802 -0.818377 -0.694997 -0.866591 -0.829566 -0.764373 -0.973318 -0.216809 -0.164623 -0.630629 -0.650829 -0.279682 -0.383947 -0.376351 -0.514460 -0.766367 -0.714951 -0.825904 -0.987167 -0.918036 -0.671966 -0.839681 -0.941529 -0.881305 -0.998463 -0.974417 -0.966125 -0.993208 -0.960457 -0.993458 -0.971848 -0.952288 -0.952008 -0.837629 -0.895913 -0.833896 -0.954483 -0.998883 -0.847819 -0.832780 -0.807786 -0.947211 -0.723797 -0.580166 -0.865444 -0.653707 -0.739419 -0.640242 -0.614216 -0.774423 -0.723614 -0.904724 -0.380451 -0.380051 -0.375057 -0.530039 -0.956252 -0.577695 -0.158975 -0.091475 0.282682 0.031149 -0.578688 -0.281227 -0.933272 -0.784584 -0.100535 -0.631815 -0.602498 -0.542003 0.545001 -0.804308 -0.066901 -0.576203 -0.771801 0.708389 0.962400 -0.639875 -0.231619 0.939997 0.655482 -0.676024 -0.602055 0.409884 -0.385096 0.920776 0.324756 -0.409261 -0.832957 -0.295821 -0.356514 0.245149 -0.290799 0.125092 0.597701 0.885345 0.723137 0.698424 -0.228467 -0.138403 -0.860442 -0.920471 -0.466235 0.655273 -0.817291 -0.937349 -0.290761 0.111841 -0.855322 -0.188100 -0.873266 -0.192034 0.715414 -0.677392 0.676979 0.523459 0.607410 -0.570685 -0.610123 -0.522322 0.892982 -0.972443 0.801023 -0.192245 0.023169 -0.718353 -0.633656 -0.764579 -0.478017 -0.130951 -0.302874 -0.208647 0.856599 0.469682 -0.849684 -0.109736 0.341259 -0.791536 0.474941 0.761852 -0.665320 -0.909681 0.908369 0.439287 0.283160 -0.609458 0.645537 0.587952 0.703827 0.010529 0.473765 -0.316189 -0.030368 -0.857859 -0.046654 -0.815996 0.342198 0.592975 -0.025923 0.744996 0.229644 0.637501 -0.406760 0.114671 0.237094 0.662203 0.835765 0.654033 -0.669548 0.529763 0.249455 -0.738062 -0.021963 -0.183483 0.469804 -0.980348 0.224295 0.886247 0.774847 -0.847322 -0.357140 -0.667640 -0.957031 0.954974 -0.581989 -0.406080 0.214241 -0.861694 -0.446258 -0.141098 -0.796629 -0.096039 0.926389 -0.626537 -0.772437 0.342032 0.124259 -0.622988 -0.437071 -0.692919 -0.229748 0.052985 -0.941833 -0.094480 0.237750 -0.784941 -0.218231 -0.237015 0.550945 -0.129136 0.548177 -0.995575 0.378604 0.736748 0.420203 -0.336024 0.422718 0.441523 0.100757 0.735447 -0.841316 -0.374054 -0.545370 -0.418605 -0.532435 0.221845 0.894455 -0.450675 -0.232386 0.730438 0.742994 -0.581400 -0.853952 0.722382 -0.460401 0.564781 -0.157175 -0.207696 0.100264 -0.740248 -0.912619 -0.861049 -0.945577 -0.905936 -0.882771 -0.992573 -0.960940 -0.917229 -0.960742 -0.975942 -0.999306 -0.911014 -0.923644 -0.920666 -0.979154 -0.989935 -0.959030 -0.983023 -0.973678 -0.972637 -0.961443 -0.930646 -0.901365 -0.966654 -0.922383 -0.927096 -0.957138 -0.996865 -0.909437 -0.973420 -0.858991 -0.740921 -0.779121 -0.994614 -0.930143 -0.749049 -0.864324 -0.899301 -0.384481 -0.690341 -0.568141 -0.666090 -0.409610 -0.987490 -0.785697 -0.998818 -0.960219 -0.859125 -0.915409 -0.934521 -0.950961 -0.953427 -0.898156 -0.949175 -0.967591 -0.943317 -0.927607 -0.961246 -0.918007 -0.913992 -0.992197 -0.988303 -0.957293 -0.845254 -0.974223 -0.941338 -0.828284 -0.904896 -0.852204 -0.853923 -0.959644 -0.919299 -0.540985 -0.600476 -0.540955 -0.842760 -0.903452 -0.596277 -0.986221 -0.975820 -0.929453 -0.555391 -0.287269 -0.485818 -0.653627 -0.409176 -0.767686 -0.513408 -0.328687 -0.738537 0.698917 0.210472 -0.967786 -0.555134 -0.174347 0.169305 0.534872 -0.038647 -0.144777 0.521886 -0.636694 -0.575898 -0.936814 -0.537538 -0.722117 -0.081234 -0.609133 0.327079 0.261729 0.960267 -0.344893 -0.219776 0.452696 0.999667 -0.698429 0.558075 0.471589 0.118885 -0.875744 -0.889955 -0.042026 -0.690064 -0.381591 -0.152637 0.887307 0.322680 -0.862832 0.925424 -0.288233 -0.823984 0.995941 0.534444 0.511125 -0.525496 -0.786194 -0.263702 -0.235993 0.010864 -0.820368 -0.930251 -0.809463 0.173204 -0.905240 -0.167364 -0.834675 -0.893022 -0.095343 -0.391226 -0.065609 0.457955 0.115229 -0.422714 -0.525970 0.068507 -0.444586 0.334622 -0.268908 0.010618 0.903176 -0.698303 0.286772 -0.949139 -0.151128 -0.523666 0.281074 -0.765459 -0.081805 0.804749 0.229896 0.078297 -0.833720 -0.765335 0.394271 -0.601769 -0.640590 -0.461567 -0.017954 -0.950826 -0.901062 0.663696 -0.857570 0.774819 0.906997 -0.895992 -0.131052 0.446977 -0.066479 0.219846 0.130695 -0.074232 0.021545 -0.291045 -0.383175 0.133885 -0.470152 0.833373 -0.909667 0.276487 0.915689 -0.234755 0.145464 -0.191586 0.122026 -0.212257 -0.670449 -0.171398 0.881462 -0.013234 0.618344 -0.643299 0.475734 0.135230 0.659265 -0.936251 -0.466899 0.518510 -0.197500 0.133833 -0.892834 0.200721 0.701385 -0.257003 0.074341 0.774689 -0.238610 -0.328224 -0.664378 0.634325 -0.867011 -0.839330 -0.101269 -0.852520 0.404266 0.017009 0.638275 -0.516513 0.988401 -0.124443 0.676144 -0.036278 -0.403948 0.229887 -0.343384 0.328422 -0.731409 -0.910964 -0.589384 0.728239 0.734758 -0.165368 0.262579 0.301801 0.779021 -0.876537 -0.130053 0.603584 -0.478720 -0.632360 -0.479073 -0.359123 0.598069 0.100958 -0.304117 -0.134850 -0.452733 0.879185 -0.589643 -0.895057 -0.109108 -0.522481 -0.991727 -0.954226 -0.755872 -0.804169 -0.546025 -0.836478 -0.897078 -0.776374 -0.873480 -0.752867 -0.904817 -0.990557 -0.840129 -0.900089 -0.835355 -0.980399 -0.907509 -0.780518 -0.942778 -0.776437 -0.727024 -0.852858 -0.681191 -0.789338 -0.948068 -0.993782 -0.888201 -0.843301 -0.783386 -0.883669 -0.817577 -0.919662 -0.997190 -0.954248 -0.763451 -0.938355 -0.581435 -0.998815 -0.648683 -0.379416 -0.816332 -0.842841 -0.861233 -0.961762 -0.678150 -0.736786 -0.758527 -0.748188 -0.962317 -0.767238 -0.881005 -0.992358 -0.992471 -0.931208 -0.942258 -0.776223 -0.563478 -0.892472 -0.952223 -0.972462 -0.780609 -0.759527 -0.864106 -0.855864 -0.959215 -0.604222 -0.811427 -0.606680 -0.569273 -0.856727 -0.902235 -0.685457 -0.785070 -0.712599 -0.608205 -0.981952 -0.858817 -0.583413 -0.487974 -0.948366 -0.608627 -0.550217 -0.385583 -0.912200 -0.834611 -0.802180 -0.938697 -0.669598 -0.523969 -0.435012 -0.887251 0.241932 0.353287 -0.770523 0.720487 -0.648851 -0.547980 -0.103888 0.506009 -0.385236 -0.941315 0.625123 -0.477717 -0.026218 -0.295050 -0.088454 -0.808063 -0.414460 -0.924415 -0.747088 0.226776 -0.902117 0.138192 0.918126 -0.667827 -0.889992 0.130413 0.598587 -0.014747 -0.688501 -0.214986 -0.585622 0.409284 0.650880 -0.881163 -0.511986 0.062436 0.394563 0.602160 0.311969 0.378524 0.235038 -0.926595 -0.363342 -0.791045 -0.909051 0.319441 -0.476809 -0.244346 -0.011861 -0.832704 -0.941501 0.544910 -0.040474 -0.312856 0.548032 -0.325424 -0.356895 -0.004425 0.186739 -0.351064 0.666711 -0.518661 -0.567237 0.223776 -0.112490 -0.220335 -0.507929 -0.354803 -0.754725 -0.915558 -0.913502 0.501471 -0.092300 0.171868 0.108210 -0.785584 0.554827 0.000638 -0.470236 0.114687 -0.546383 0.645241 0.812881 0.410869 -0.026633 -0.582344 -0.407410 0.583426 0.233704 -0.817302 0.329957 -0.091805 -0.409474 -0.699805 -0.036903 -0.754120 -0.068398 0.294651 0.797387 0.009007 -0.300130 0.126840 0.426070 -0.105874 0.277528 0.217498 -0.595181 0.903863 -0.428216 0.883946 0.319853 -0.284393 0.194000 -0.132612 -0.051055 0.661497 -0.905465 0.717545 -0.257496 -0.614770 0.891084 -0.883950 0.014684 0.104739 0.902893 -0.153514 -0.441413 -0.230248 0.558238 0.386067 0.841631 0.789818 -0.646700 0.651130 0.815409 -0.986775 0.360759 -0.657800 0.345792 0.070812 -0.856807 0.647764 -0.805681 -0.381068 0.379907 -0.539254 0.307903 0.892901 -0.282110 -0.237947 0.624395 0.423126 0.332881 -0.826678 0.535164 0.159924 0.458117 0.570456 0.282606 0.316556 -0.281780 0.436751 -0.465790 0.527035 0.904801 -0.269395 0.046099 0.240493 -0.746058 -0.944968 0.217757 -0.199334 0.146128 -0.176157 -0.184589 -0.287030 0.114103 -0.829089 0.252586 -0.803428 -0.881232 -0.875693 -0.698347 -0.354555 -0.716617 -0.627233 -0.710444 -0.670495 -0.634647 -0.943761 -0.489453 -0.922014 -0.440210 -0.522814 -0.786858 -0.704126 -0.868815 -0.342937 -0.393874 -0.792116 -0.413487 -0.356611 -0.570780 -0.877826 -0.568567 -0.374974 -0.220462 -0.793914 -0.363243 -0.384802 0.055628 -0.367991 -0.656130 -0.932323 -0.881087 -0.749962 -0.898481 0.080992 0.162734 -0.529707 -0.562970 -0.942184 -0.830199 -0.880487 -0.987710 -0.977020 -0.695946 -0.722961 -0.387152 -0.996510 -0.783378 -0.827065 -0.807834 -0.750034 -0.985523 -0.842101 -0.659773 -0.709425 -0.538682 -0.888017 -0.993608 -0.705790 -0.548833 -0.337289 -0.667598 -0.782957 -0.877121 -0.701227 -0.771879 -0.825816 -0.863453 -0.727423 -0.951131 -0.425483 -0.508287 0.087389 -0.173733 -0.478046 -0.047008 -0.722172 -0.271135 -0.428311 -0.067334 -0.556817 -0.677608 -0.722361 -0.883992 -0.189216 -0.808681 0.662589 -0.409285 0.622904 -0.764687 0.240437 -0.775930 0.396723 -0.859009 -0.481903 -0.202010 -0.766705 0.541199 0.216486 -0.459533 0.342474 0.138654 0.466649 0.432021 -0.990876 -0.843520 0.147011 -0.119569 -0.359239 -0.712087 0.530943 -0.648730 0.938252 0.349838 0.504643 -0.650234 -0.703458 -0.339885 0.267210 -0.590243 -0.029691 -0.165067 -0.470405 -0.890293 0.825536 0.467179 0.500128 -0.136672 -0.005978 -0.166287 -0.736884 -0.415028 0.019690 0.967380 -0.344961 0.041142 0.050307 -0.261841 -0.978909 -0.478579 -0.833527 -0.723907 -0.689587 -0.662297 0.011425 -0.178139 -0.206568 -0.615676 0.599699 -0.599915 0.222111 -0.539490 -0.494299 -0.382575 -0.707738 0.512015 0.801239 0.981262 -0.843933 0.316345 0.193216 -0.638248 -0.777037 -0.379791 -0.822540 0.554749 0.947923 -0.062784 0.336914 0.734411 0.233558 -0.206413 0.363847 0.656311 -0.377519 -0.539920 -0.173068 -0.719133 -0.372595 -0.891658 -0.780817 -0.613285 -0.540231 -0.596092 -0.940190 0.679512 -0.860443 0.467120 -0.290996 0.092985 -0.719851 -0.511574 -0.803275 -0.924325 -0.125336 -0.538239 0.771271 -0.383053 0.923816 0.436556 -0.412701 0.286352 -0.297424 0.443371 0.227753 0.719941 -0.731827 -0.123535 -0.313507 -0.857927 0.313873 0.342896 -0.124118 0.456284 0.677741 0.546711 0.985819 0.418694 -0.074272 0.373877 -0.463593 1 
0.891095 -0.731262 0.663416 -0.452291 0.552177 0.147003 0.714730 -0.119507 0.572440 0.305160 -0.230103 -0.884589 0.770670 -0.592564 -0.944388 0.329996 -0.123827 -0.691702 -0.014559 0.031509 0.199637 0.876612 0.533623 0.505975 -0.872673 0.004951 -0.815918 -0.932602 0.513792 0.179149 0.681702 -0.451639 -0.335327 0.533436 -0.250044 -0.124148 -0.407654 -0.427956 -0.620339 0.205750 -0.417999 0.102966 -0.909973 -0.336074 -0.482150 -0.956185 -0.682302 -0.880973 -0.803309 -0.792317 -0.956592 -0.888175 -0.981401 -0.892792 -0.986562 -0.775388 -0.789946 -0.834738 -0.750448 -0.848624 -0.987266 -0.964272 -0.833878 -0.735402 -0.804678 -0.424594 -0.916891 -0.638020 -0.975537 -0.699913 -0.727455 -0.923759 -0.569803 -0.580288 -0.542820 -0.532289 -0.774193 -0.867973 -0.778906 -0.558050 -0.895024 -0.114087 -0.978429 -0.377684 -0.020185 0.129410 -0.642339 -0.894840 -0.105096 0.440673 -0.990535 -0.934749 -0.938306 -0.905382 -0.891460 -0.916385 -0.904941 -0.807568 -0.908023 -0.986196 -0.882202 -0.897081 -0.879206 -0.615172 -0.872523 -0.884073 -0.791254 -0.948074 -0.822812 -0.775866 -0.889830 -0.942930 -0.986541 -0.415872 -0.995770 -0.605928 -0.619753 -0.600175 -0.630236 -0.860652 -0.434718 -0.297668 -0.990351 -0.191250 -0.340686 -0.206427 0.095113 0.278078 -0.335132 -0.449855 -0.827009 -0.604130 0.229296 0.729099 -0.576637 0.673973 -0.528466 0.217992 -0.147247 0.937917 0.522247 0.059852 0.304450 0.088989 -0.591827 -0.890593 0.189469 0.226775 -0.124401 -0.848998 -0.969612 0.333701 0.746826 0.162262 0.497317 0.852149 -0.545455 -0.010211 0.003140 0.491338 0.068808 0.501160 0.053467 -0.748077 0.214057 0.208415 -0.552521 0.594258 0.465256 -0.863522 0.977144 -0.315603 0.148224 -0.514465 0.874512 0.958958 0.005310 -0.608518 0.820953 -0.581787 -0.808014 0.331168 0.264740 -0.576697 0.101553 -0.549078 0.546940 -0.026849 -0.201736 -0.625336 -0.424030 0.755355 -0.488114 -0.177993 0.504448 -0.658966 0.602722 -0.322343 -0.497868 -0.371857 0.014390 -0.931535 0.179204 0.062832 -0.011952 0.185564 -0.299444 0.229614 -0.936369 0.643443 -0.073918 0.108388 -0.654235 0.916671 0.083530 0.568301 0.094421 0.834167 0.849426 -0.958618 0.398346 -0.108093 -0.269348 -0.498595 0.643131 0.540994 0.202128 -0.245751 -0.785333 -0.908016 0.020306 0.553892 -0.231908 0.282185 -0.644278 0.779835 0.732896 0.116442 -0.596150 0.549793 -0.543131 0.749150 0.744692 -0.303560 0.463806 -0.550895 0.384288 0.358503 0.647912 0.356733 -0.727272 -0.771210 0.476222 0.304909 0.524050 -0.260925 -0.367936 0.131495 0.747408 0.991794 -0.244122 -0.138577 0.381721 -0.987579 0.212585 -0.042511 0.142141 -0.326959 -0.063917 -0.099272 -0.240746 0.989278 -0.858521 -0.205778 -0.267590 -0.768815 -0.106400 -0.171336 -0.079293 0.345237 -0.804900 0.841413 0.873906 0.180430 0.857445 0.576565 0.333010 -0.448275 -0.522746 0.715423 -0.265694 0.853723 0.494151 0.359937 -0.640965 -0.856033 -0.283620 0.488794 -0.171278 0.994575 0.496952 0.378597 -0.557582 -0.776748 -0.427062 -0.691327 0.573764 0.567516 -0.085948 0.299202 -0.164994 0.978032 0.587208 0.030833 0.422858 -0.800126 -0.833582 -0.997352 -0.915582 -0.959715 -0.934087 -0.875454 -0.990828 -0.965999 -0.980237 -0.930266 -0.914006 -0.943486 -0.972052 -0.923440 -0.968363 -0.986751 -0.915572 -0.915542 -0.905001 -0.961454 -0.915305 -0.920161 -0.998515 -0.999926 -0.943836 -0.923151 -0.739389 -0.962915 -0.709939 -0.933116 -0.731812 -0.713674 -0.905225 -0.658226 -0.748950 -0.168702 -0.093578 -0.678542 -0.239714 -0.524123 -0.006526 -0.224225 0.097729 -0.103597 -0.896694 -0.933367 -0.980789 -0.937057 -0.876854 -0.887121 -0.882301 -0.823257 -0.966494 -0.952859 -0.917584 -0.846052 -0.915772 -0.929236 -0.999573 -0.963444 -0.986014 -0.973875 -0.978836 -0.942104 -0.830633 -0.851097 -0.964761 -0.809367 -0.919927 -0.848025 -0.883876 -0.761640 -0.318926 -0.483930 -0.852491 -0.272749 -0.302567 -0.827791 -0.304166 -0.541264 -0.146900 0.448100 0.089610 -0.366455 0.206079 -0.092037 0.403941 0.001812 -0.115917 0.741790 0.926402 0.623576 -0.116736 -0.473715 -0.162735 0.242294 -0.858368 0.434242 0.278369 -0.500850 -0.948710 -0.177021 -0.936789 -0.194783 -0.731944 0.902053 0.836141 -0.663561 -0.786994 0.481910 -0.525232 0.328080 0.291891 0.738491 -0.788002 0.183823 -0.314301 0.283768 -0.028069 0.819779 -0.923415 0.235382 -0.039094 -0.663433 0.133148 0.030057 0.534738 0.842545 0.230449 0.322129 0.436345 0.865769 0.853098 0.911827 0.517769 -0.889309 0.158468 -0.509341 -0.817738 -0.865346 -0.622679 0.576919 -0.383060 0.081532 -0.436049 -0.640172 -0.182139 0.052048 0.773925 -0.512875 -0.002102 -0.068935 -0.262878 -0.659445 -0.142229 -0.129515 -0.630331 0.009308 0.255880 -0.891251 0.991720 -0.110848 -0.918915 -0.633667 -0.367515 -0.076990 -0.943573 -0.819580 -0.772039 -0.815835 0.622006 -0.555430 0.263900 -0.322771 -0.255431 -0.244108 -0.276885 0.036523 -0.238694 -0.454681 -0.419585 0.638137 0.040106 -0.799525 0.123668 0.248245 0.222279 -0.764780 0.411330 -0.769015 -0.839456 0.627997 0.379008 -0.087842 -0.887047 -0.464489 -0.644422 -0.954976 0.397899 -0.962328 -0.332600 -0.285721 0.065989 -0.785614 0.941080 0.140293 -0.197270 0.943279 -0.221786 -0.776489 0.349491 0.403115 0.343717 0.525468 0.014747 0.247993 -0.254502 -0.369583 -0.061639 -0.950300 -0.936819 0.627367 -0.117475 -0.207656 0.937212 -0.429620 0.843698 -0.121966 -0.146594 -0.892421 0.066406 0.975576 -0.851485 0.823132 -0.223897 -0.448595 0.968250 0.054470 0.812591 -0.946995 0.947548 -0.318879 0.777272 -0.365233 0.128059 0.542313 0.284694 -0.086955 -0.118729 0.830633 0.055775 0.440820 0.381143 -0.656178 -0.066061 -0.526455 0.384892 0.335374 0.143011 0.032387 0.907223 0.670292 0.555935 -0.188719 -0.286389 0.624111 -0.169240 0.608875 0.592534 -0.752505 -0.894645 -0.838398 -0.963480 -0.991379 -0.770758 -0.728158 -0.709866 -0.809223 -0.955182 -0.968201 -0.946320 -0.963457 -0.984214 -0.952870 -0.939789 -0.960270 -0.982895 -0.946484 -0.955633 -0.971264 -0.981729 -0.979539 -0.936486 -0.943277 -0.976338 -0.941983 -0.707279 -0.975508 -0.942659 -0.765626 -0.758135 -0.927310 -0.718980 -0.640067 -0.724460 -0.799473 -0.547707 -0.483436 -0.968549 -0.028115 -0.669341 -0.333807 -0.010890 -0.531576 -0.770362 -0.897962 -0.770519 -0.841891 -0.838285 -0.763764 -0.662422 -0.712573 -0.911671 -0.951061 -0.970670 -0.982110 -0.997061 -0.980511 -0.998185 -0.942896 -0.973688 -0.984578 -0.911294 -0.812084 -0.919616 -0.884619 -0.988433 -0.957545 -0.880379 -0.981988 -0.951983 -0.582635 -0.282232 -0.249727 -0.364083 -0.648849 -0.811485 -0.593608 -0.765533 -0.808528 0.339143 -0.398964 -0.250929 -0.564648 -0.479645 -0.706401 -0.352184 -0.703645 0.138727 -0.826663 0.022073 -0.912440 -0.181800 0.908047 0.233575 -0.169160 0.661659 -0.931047 0.124719 -0.513938 -0.124659 0.861653 -0.399236 -0.049491 0.928088 -0.069865 0.975528 0.462763 -0.091115 -0.487297 0.766022 -0.651238 0.255542 0.989716 0.350492 -0.764832 0.913718 0.613702 -0.391278 -0.816193 0.957288 0.784158 -0.517831 -0.697422 -0.084282 0.316972 0.379395 0.839249 0.054173 -0.672598 0.663183 0.639702 0.277519 0.077143 0.733807 -0.008831 0.370932 -0.728754 -0.066221 -0.080523 0.220826 0.268787 -0.960073 -0.952569 0.455817 -0.427016 0.370330 -0.499701 -0.723238 -0.736819 -0.342942 0.152230 0.761489 0.710487 -0.752477 0.333205 0.079670 -0.615418 -0.889639 -0.616365 -0.062103 -0.569530 0.731347 0.647928 -0.584256 -0.608295 -0.971768 0.856648 0.657889 0.226548 0.983749 -0.740858 0.108788 0.145864 0.260098 -0.667501 0.202625 0.734680 -0.571923 0.474152 0.133120 0.954285 -0.948918 -0.634153 0.692920 -0.350352 0.508705 -0.724231 0.235475 0.265085 -0.521211 -0.940457 -0.049428 0.157512 0.240455 0.395443 0.931843 -0.736266 0.843037 -0.186185 -0.408754 -0.570149 -0.154148 -0.701830 0.300168 0.125955 -0.110273 0.382064 -0.754112 0.182554 -0.511959 0.216540 0.647548 0.121111 0.892922 0.377959 -0.491742 -0.826417 0.394742 -0.265264 -0.225468 0.147567 -0.839736 0.311073 -0.434619 -0.707596 -0.374446 -0.400853 0.250954 0.491531 0.287508 -0.750113 0.657419 0.846439 0.191185 -0.030225 -0.631718 -0.778803 -0.335500 -0.705705 0.775033 0.530444 -0.151620 0.787395 -0.722399 -0.697962 -0.297697 0.950100 -0.488987 0.115460 0.443370 -0.772858 -0.343750 0.428030 0.620890 0.658745 0.001505 0.137986 0.017153 -0.949921 -0.016441 0.012392 0.394807 0.647541 0.357238 0.739436 0.319828 0.580611 -0.884446 -0.927098 -0.764070 -0.981884 -0.928778 -0.936989 -0.997940 -0.655334 -0.720269 -0.729752 -0.946719 -0.985902 -0.998241 -0.976554 -0.960545 -0.925556 -0.933287 -0.966339 -0.993451 -0.970601 -0.972769 -0.922792 -0.956172 -0.965552 -0.952294 -0.926484 -0.956765 -0.922592 -0.855863 -0.676703 -0.718714 -0.996177 -0.763378 -0.816755 -0.848485 -0.732870 -0.792166 -0.199253 -0.410272 -0.479881 -0.033208 -0.348649 -0.401616 -0.428720 -0.240276 -0.196174 -0.777673 -0.819831 -0.959591 -0.942733 -0.993869 -0.738710 -0.661967 -0.923381 -0.893491 -0.979035 -0.955973 -0.999878 -0.983951 -0.999272 -0.974078 -0.926414 -0.934151 -0.982660 -0.964788 -0.931186 -0.780031 -0.907907 -0.931240 -0.800190 -0.898141 -0.856518 -0.821015 -0.946837 -0.560040 -0.699212 -0.460585 -0.842298 -0.786866 -0.474268 -0.390646 -0.649085 -0.690030 -0.388610 -0.055660 0.026136 -0.153871 -0.451724 0.129161 0.056024 -0.046317 0.132050 0.838040 0.844505 -0.246924 -0.746101 0.263598 -0.220673 -0.473877 -0.807278 -0.016359 -0.813638 0.041762 0.155856 0.426287 0.562359 -0.823152 0.880559 0.282386 -0.403569 -0.004103 0.880060 -0.521009 -0.753764 0.309242 -0.566087 0.039980 0.732731 -0.611603 0.378113 -0.960907 0.226360 -0.410995 0.405673 -0.116720 -0.119429 0.352203 0.312198 0.129107 -0.791453 0.495773 -0.946687 0.414490 0.539581 0.187958 0.240592 0.859898 0.045053 -0.750416 -0.123759 -0.998448 0.173537 -0.637325 0.332745 -0.954901 0.808754 0.193733 0.176981 0.202282 -0.415331 -0.958559 0.736373 -0.593523 0.723505 -0.734672 -0.601727 0.477354 -0.410170 -0.524000 -0.435437 0.334740 0.255754 -0.287465 -0.789566 0.242889 -0.368674 -0.959986 -0.744539 -0.744553 -0.914841 -0.781617 0.419553 0.014862 0.153696 -0.614238 0.239208 -0.325335 -0.356247 0.369829 0.695747 0.622975 -0.717085 0.044049 -0.569878 -0.975999 -0.492339 0.477360 0.658296 -0.223517 -0.834625 -0.514388 0.352300 -0.977965 0.006680 0.236543 0.415169 -0.797426 -0.596329 0.875334 -0.356351 0.198155 -0.016201 -0.474110 -0.822606 0.644140 0.555864 0.342959 0.853720 -0.224854 0.296509 -0.359961 -0.048030 -0.015671 -0.680747 -0.592525 0.709772 0.111794 0.763613 0.295800 0.126157 -0.671462 -0.871187 -0.963558 -0.185355 -0.230580 -0.549992 0.776522 -0.209704 0.323078 -0.526501 0.749720 0.004752 0.834760 -0.406652 -0.874499 0.000260 -0.470837 -0.549922 -0.272836 0.629100 0.422829 0.431734 0.407103 0.568637 -0.520482 -0.181611 -0.953257 0.386956 -0.279424 0.980774 -0.817668 0.820913 0.732277 0.440769 -0.872261 -0.328021 -0.302182 0.470154 0.353180 0.006465 -0.443570 0.098078 -0.859483 -0.465555 0.680464 0.020993 -0.035980 0.540593 0.193054 0.802578 0.544464 -0.967576 -0.981022 -0.712823 -0.982196 -0.968006 -0.684422 -0.750649 -0.949870 -0.895886 -0.957936 -0.936455 -0.976342 -0.991691 -0.974682 -0.998162 -0.998039 -0.953956 -0.988994 -0.995787 -0.957834 -0.993725 -0.980289 -0.987918 -0.983748 -0.958996 -0.964768 -0.998789 -0.751545 -0.964410 -0.908692 -0.888865 -0.993014 -0.743554 -0.960853 -0.687050 -0.739452 -0.813818 -0.948876 -0.537802 -0.481205 -0.952951 -0.129456 -0.305862 -0.178829 -0.889484 -0.781738 -0.784084 -0.994134 -0.986269 -0.901019 -0.695433 -0.676616 -0.696586 -0.652602 -0.963339 -0.996143 -0.956907 -0.979646 -0.986967 -0.952428 -0.998645 -0.968312 -0.963062 -0.828480 -0.874481 -0.981760 -0.869410 -0.911027 -0.849308 -0.845937 -0.941898 -0.995419 -0.731834 -0.567660 -0.849896 -0.985392 -0.518952 -0.849565 -0.840836 -0.468235 -0.969858 -0.694508 -0.478426 -0.706768 -0.944567 -0.554205 -0.262751 -0.620461 -0.604846 -0.234780 0.818397 -0.173874 0.471720 -0.597993 0.031650 -0.067511 -0.916438 0.413510 -0.893839 -0.030150 0.214128 0.112902 0.054047 -0.279406 -0.221099 -0.883153 0.472112 -0.918283 -0.624369 0.425591 0.060024 -0.714842 0.398893 -0.094142 -0.112312 -0.027557 0.598814 0.507738 0.895417 -0.804311 -0.072823 0.579113 -0.449125 0.741791 0.923502 -0.772272 -0.619306 -0.852751 -0.431297 -0.681275 0.111934 0.098755 0.105575 -0.312347 0.151031 0.866434 -0.754220 0.346137 -0.499730 -0.489916 -0.486443 -0.092129 -0.965368 -0.567012 -0.089939 0.215881 -0.673801 -0.259206 -0.694173 -0.699578 -0.697473 -0.753669 -0.295789 0.094550 0.426654 0.668793 -0.141747 -0.248392 -0.236734 -0.517273 0.040738 0.330355 -0.932956 0.520329 0.595146 0.027300 0.414770 0.185023 0.444063 0.118248 -0.127495 0.008547 0.842887 0.103345 -0.633587 0.093146 0.152833 0.140045 -0.322876 0.957245 0.579170 0.973547 0.688928 -0.300933 -0.922443 -0.000107 -0.330668 -0.356904 -0.260988 0.829860 0.108035 -0.673200 -0.534452 -0.175642 0.571158 -0.552356 0.081382 0.797285 -0.817895 -0.845877 0.522717 -0.691072 -0.501719 -0.433695 -0.285696 -0.348058 0.663781 -0.142506 0.462250 0.442726 -0.959171 0.343438 -0.766968 0.692497 -0.300084 -0.940091 -0.223631 0.710127 0.189318 0.014746 -0.159042 0.081512 0.229837 -0.691427 -0.722728 -0.014496 0.033076 -0.957716 -0.392697 -0.389801 -0.792344 -0.805390 0.991882 0.451419 0.643264 0.508171 0.939352 -0.270928 0.006528 0.149511 0.121309 -0.291962 -0.052095 0.962874 -0.245078 -0.902291 -0.879721 0.805886 0.751670 0.095086 0.041242 -0.694947 -0.476644 -0.824811 0.915622 -0.142418 -0.609785 -0.222675 0.045629 -0.629656 0.649705 0.470244 -0.839632 -0.477722 0.261920 -0.921589 0.499652 -0.357086 0.541888 -0.258852 -0.937264 -0.967549 -0.981493 -0.909921 -0.972350 -0.999160 -0.969195 -0.901661 -0.906628 -0.966956 -0.948225 -0.936901 -0.984960 -0.911969 -0.996848 -0.971695 -0.961609 -0.969837 -0.980785 -0.933088 -0.993973 -0.897373 -0.941462 -0.977984 -0.934529 -0.931438 -0.929343 -0.782143 -0.762513 -0.832087 -0.895211 -0.725085 -0.901535 -0.970044 -0.782147 -0.881250 -0.604097 -0.628554 -0.802828 -0.491343 -0.870242 -0.726258 -0.816995 -0.485176 -0.604744 -0.839396 -0.943939 -0.836879 -0.917881 -0.977724 -0.970654 -0.861666 -0.862640 -0.897966 -0.957184 -0.952733 -0.997792 -0.970853 -0.973665 -0.951957 -0.930952 -0.942108 -0.949031 -0.957185 -0.925780 -0.972309 -0.864781 -0.981001 -0.897602 -0.871136 -0.923677 -0.938436 -0.665009 -0.649540 -0.856973 -0.550721 -0.639242 -0.598978 -0.981202 -0.659064 -0.575653 -0.678980 -0.313563 -0.823500 -0.502790 -0.745864 -0.072433 -0.824232 -0.857826 0.006718 0.249529 0.322754 -0.490163 -0.217120 -0.202026 -0.790034 -0.521401 0.555990 -0.192415 0.341446 -0.797932 -0.946449 -0.818851 -0.535740 0.857524 -0.664762 -0.388753 -0.919434 0.732338 0.341557 -0.882242 -0.292685 -0.360605 -0.275366 0.090296 -0.481051 -0.729743 -0.471427 -0.833759 -0.651484 -0.731488 -0.661693 0.748749 -0.509123 -0.603203 -0.905779 -0.281672 -0.456418 0.877203 0.184039 0.997742 -0.310998 0.904513 -0.260649 0.925323 0.759273 -0.711225 0.700073 -0.812873 0.128699 -0.006678 -0.125816 -0.280202 -0.125318 -0.292227 0.840773 -0.232334 -0.543544 -0.835265 -0.683712 0.584944 0.312526 0.394793 -0.296719 -0.768930 -0.325287 0.193574 -0.972493 0.610995 0.020521 -0.379699 -0.508916 0.126852 -0.186277 -0.872405 -0.344114 -0.387754 -0.426758 -0.293824 -0.157445 -0.471173 0.533865 0.566409 0.001107 -0.561371 -0.059030 0.743821 -0.132235 0.192688 0.872131 0.149568 -0.783481 0.796789 -0.580590 -0.918450 -0.537453 0.070917 -0.187517 -0.464225 -0.418106 0.208618 0.067862 -0.065308 0.261876 -0.839126 -0.100583 0.790038 -0.860078 -0.366026 0.861261 0.669396 -0.573139 -0.951542 -0.955541 -0.917841 0.996558 0.393787 -0.201859 0.774948 -0.220999 -0.195487 -0.282547 -0.665654 0.115226 0.075352 -0.511522 0.016672 -0.709775 -0.066568 -0.619519 -0.508071 -0.747794 -0.489075 0.571655 0.417103 0.494721 -0.899480 -0.096238 -0.920727 0.626079 0.279106 -0.250117 0.645752 -0.144565 -0.489014 -0.456322 -0.036603 -0.903203 0.541441 0.331542 -0.453549 0.088177 -0.405720 -0.469648 0.535676 0.187725 -0.729769 -0.434290 -0.235447 -0.572927 0.503848 0.366783 0.710132 -0.515922 0.608559 -0.384045 -0.236453 0.806508 0.261819 -0.449024 -0.735047 0.069615 -0.730692 0.180200 -0.387146 -0.251260 -0.956705 -0.126345 0.558122 -0.902843 -0.713398 -0.953400 -0.947436 -0.922123 -0.578121 -0.934568 -0.849227 -0.941523 -0.918492 -0.861196 -0.851930 -0.659297 -0.953102 -0.733386 -0.660486 -0.884185 -0.798366 -0.957958 -0.934677 -0.806951 -0.821484 -0.739466 -0.905383 -0.733102 -0.951165 -0.758323 -0.866229 -0.729241 -0.863314 -0.644735 -0.627276 -0.930406 -0.727437 -0.929207 -0.809549 -0.894391 -0.699000 -0.543631 -0.801787 -0.480907 -0.903168 -0.944248 -0.562951 -0.887288 -0.603215 -0.894669 -0.785204 -0.790235 -0.868216 -0.654205 -0.908878 -0.943420 -0.876905 -0.834365 -0.752113 -0.826328 -0.739417 -0.782400 -0.559099 -0.952942 -0.973606 -0.781725 -0.866959 -0.890303 -0.710689 -0.919879 -0.695528 -0.923201 -0.998931 -0.880547 -0.917176 -0.954047 -0.657869 -0.580058 -0.442135 -0.466573 -0.891224 -0.913239 -0.813594 -0.987517 -0.588462 -0.565688 -0.224991 -0.099500 -0.447176 -0.215954 -0.370973 -0.484770 -0.671483 -0.258599 -0.461468 -0.572833 0.104432 -0.302261 -0.120142 0.012854 0.625984 -0.735086 0.741925 -0.773976 -0.447998 -0.816340 -0.990004 -0.209519 0.313352 -0.993206 0.296448 -0.093367 -0.949010 -0.814169 0.081879 -0.815160 -0.592639 0.101381 -0.144951 -0.118180 0.180247 -0.017199 -0.313420 0.786549 -0.542092 -0.252930 -0.877137 0.038088 -0.737533 0.229190 0.173179 -0.138021 0.743488 0.457628 0.103900 -0.061296 -0.683492 -0.408827 -0.347035 0.680790 -0.276333 0.243265 -0.477226 -0.516638 0.313486 0.834093 0.842334 -0.069168 -0.287527 -0.255599 -0.051881 -0.381892 -0.181793 0.408102 -0.028142 -0.987229 0.068340 0.925339 -0.410205 0.627437 -0.824466 -0.446842 0.440930 0.793272 0.694733 -0.943116 0.060873 -0.459322 -0.594722 -0.929787 -0.160008 -0.265666 -0.953650 -0.396807 -0.828986 0.087482 0.988534 0.211550 0.747794 -0.857227 -0.036929 0.914703 0.024135 0.274017 0.891252 -0.867401 -0.129412 -0.890322 -0.469916 0.324400 -0.090179 0.097857 -0.011328 -0.070198 -0.954312 0.051894 -0.239657 -0.543170 0.791164 0.148918 0.132218 -0.017745 -0.811178 0.562708 -0.160780 -0.610052 0.666779 0.721680 -0.670918 0.242807 -0.071554 0.077063 -0.780203 -0.058677 -0.694695 -0.159415 0.529043 -0.705237 -0.062214 -0.868408 -0.033229 -0.451986 0.277096 0.024445 -0.525790 0.667492 -0.941631 0.598879 -0.803691 0.771951 -0.086374 -0.159620 -0.238801 0.537866 -0.796449 -0.017029 0.383060 0.354075 -0.724842 -0.814258 -0.459760 -0.476501 -0.033509 -0.460842 -0.019378 -0.970619 0.162726 -0.706013 -0.774778 -0.904966 -0.689186 -0.350202 -0.160962 0.061050 -0.074712 0.238648 -0.525305 0.564442 -0.514275 0.332199 -0.139755 -0.353804 -0.120819 0.008461 -0.880889 -0.189304 0.115770 0.326986 0.010143 0.746893 0.155500 -0.889734 0.139042 0.475744 -0.618349 -0.694738 -0.369013 -0.727879 -0.483027 -0.953025 -0.637431 -0.697391 -0.829740 -0.982164 -0.544777 -0.444547 -0.764032 -0.514082 -0.530766 -0.444974 -0.624259 -0.802737 -0.569136 -0.352764 -0.483536 -0.644791 -0.874548 -0.154555 -0.572619 -0.981777 -0.639240 -0.139522 -0.855626 -0.988091 -0.162664 -0.192828 -0.810133 -0.843095 -0.523636 -0.612320 -0.225329 -0.578244 -0.477521 -0.233103 -0.565609 -0.834120 -0.657101 -0.678799 -0.233262 -0.550244 -0.619808 -0.549283 -0.705916 -0.249670 -0.659049 -0.611096 -0.848373 -0.944056 -0.574063 -0.681360 -0.576216 -0.733899 -0.830266 -0.600917 -0.851614 -0.457142 -0.519541 -0.900928 -0.256630 -0.587349 -0.751644 -0.171264 -0.043928 -0.185744 -0.512580 -0.847974 -0.199023 -0.777406 -0.906537 -0.486939 -0.340384 -0.409945 -0.330640 -0.031654 -0.873788 -0.934273 -0.278068 -0.058677 -0.565795 -0.650771 -0.092924 -0.925387 -0.400625 -0.764177 0.095624 -0.605502 0.551345 -0.435620 -0.512163 0.523419 -0.981466 0.947418 -0.914768 -0.749897 -0.528661 0.356293 -0.746149 -0.574006 -0.757802 -0.485287 -0.812652 -0.367975 0.461023 -0.520030 -0.228471 -0.459452 0.907222 0.627126 0.312082 0.375561 0.859728 0.161209 -0.658191 -0.568188 0.717627 -0.222589 -0.830481 0.453053 0.801531 -0.471525 -0.606403 -0.629091 0.554758 -0.148226 -0.366081 -0.659496 -0.791053 -0.226094 -0.937846 0.020552 -0.940409 -0.906094 -0.573118 -0.680832 0.054934 0.172818 -0.876963 0.174956 0.098141 -0.314789 0.306854 0.389555 0.107484 0.240491 0.439204 -0.128261 0.725575 -0.447723 -0.093951 -0.818939 -0.093134 0.138674 -0.170178 -0.390150 0.554321 0.524353 0.291016 -0.482644 0.045999 -0.634038 -0.704956 -0.967957 -0.408325 0.008728 -0.336543 -0.542968 0.988220 0.850543 0.177001 0.228430 0.372909 0.620087 -0.732290 -0.606792 -0.062500 -0.411311 0.047753 -0.334955 0.688810 -0.107372 0.264302 0.301996 -0.521095 -0.691735 -0.987823 -0.104316 -0.121746 -0.534834 0.091098 -0.601530 0.380128 -0.933796 -0.118469 -0.026642 -0.848602 0.288563 0.825818 -0.164160 -0.594761 -0.609211 -0.777618 0.316146 0.209534 -0.901490 -0.873808 -0.340880 -0.823181 -0.464342 -0.725159 -0.510468 -0.603891 -0.140109 0.746583 0.732702 -0.054050 0.198135 0.721917 0.710101 0.479614 1 
